#include <vector>

/* Model data */
static const struct CatboostModel {
    unsigned int FloatFeatureCount = 28;
    unsigned int BinaryFeatureCount = 432;
    unsigned int TreeCount = 100;
    unsigned int TreeDepth[100] = {6, 6, 6, 6, 6, 6, 6, 6, 6, 6, 6, 6, 6, 6, 5, 6, 6, 6, 6, 6, 6, 6, 6, 6, 3, 3, 6, 6, 6, 6, 6, 6, 6, 6, 6, 6, 6, 6, 6, 6, 4, 6, 6, 6, 2, 6, 6, 6, 6, 6, 6, 6, 6, 6, 6, 6, 4, 4, 4, 4, 6, 6, 6, 6, 5, 6, 6, 6, 6, 6, 6, 6, 6, 4, 6, 6, 6, 6, 6, 6, 6, 6, 6, 6, 6, 6, 6, 5, 6, 6, 6, 4, 6, 6, 6, 6, 6, 6, 6, 6};
    unsigned int TreeSplits[573] = {54, 324, 293, 53, 146, 132, 255, 426, 285, 340, 407, 19, 1, 100, 133, 261, 258, 142, 243, 281, 283, 390, 180, 431, 309, 317, 213, 338, 29, 429, 305, 274, 36, 336, 35, 334, 106, 382, 95, 290, 366, 99, 180, 330, 375, 294, 134, 402, 398, 51, 356, 395, 50, 109, 123, 145, 224, 354, 352, 205, 345, 384, 161, 229, 104, 114, 270, 248, 64, 63, 365, 238, 283, 293, 358, 186, 279, 287, 171, 83, 42, 158, 426, 125, 91, 67, 226, 201, 133, 388, 163, 293, 66, 105, 334, 272, 253, 2, 162, 111, 27, 179, 257, 196, 333, 172, 343, 3, 249, 239, 153, 409, 190, 223, 306, 60, 72, 107, 49, 159, 128, 5, 396, 238, 200, 199, 184, 397, 10, 0, 9, 420, 19, 15, 6, 218, 390, 265, 124, 424, 332, 419, 420, 180, 289, 134, 88, 86, 238, 282, 413, 334, 363, 21, 331, 134, 97, 180, 399, 263, 286, 238, 133, 167, 22, 290, 239, 362, 75, 295, 424, 97, 0, 300, 204, 318, 153, 65, 233, 44, 271, 215, 412, 281, 411, 220, 307, 203, 369, 133, 18, 154, 385, 323, 53, 392, 316, 133, 367, 156, 291, 254, 401, 256, 137, 217, 357, 112, 87, 121, 194, 174, 239, 41, 328, 408, 322, 389, 8, 25, 89, 346, 291, 335, 406, 176, 135, 339, 333, 195, 129, 275, 178, 391, 92, 336, 294, 68, 378, 299, 130, 70, 154, 418, 42, 427, 136, 241, 276, 294, 319, 158, 168, 42, 198, 59, 293, 13, 180, 398, 391, 74, 236, 227, 71, 403, 373, 47, 416, 250, 393, 121, 251, 4, 122, 187, 261, 238, 17, 110, 277, 308, 147, 28, 52, 298, 202, 76, 139, 396, 62, 268, 295, 133, 27, 387, 185, 400, 211, 45, 132, 428, 73, 315, 84, 56, 80, 184, 180, 182, 166, 388, 410, 7, 19, 310, 192, 101, 234, 238, 33, 379, 141, 286, 98, 428, 260, 359, 250, 237, 375, 189, 430, 34, 239, 235, 415, 202, 303, 247, 364, 314, 348, 191, 78, 324, 312, 381, 261, 369, 27, 301, 113, 304, 108, 321, 24, 179, 418, 239, 169, 120, 416, 230, 119, 264, 46, 134, 155, 131, 37, 370, 93, 143, 59, 406, 214, 134, 151, 278, 188, 11, 246, 209, 222, 90, 371, 69, 351, 133, 138, 383, 252, 98, 269, 40, 164, 228, 129, 261, 189, 177, 311, 207, 149, 102, 214, 148, 422, 425, 221, 134, 126, 245, 380, 416, 115, 103, 193, 337, 266, 140, 210, 393, 185, 127, 369, 414, 312, 208, 404, 259, 231, 131, 360, 417, 79, 236, 225, 238, 32, 94, 326, 203, 294, 394, 293, 20, 170, 372, 60, 187, 82, 421, 96, 15, 374, 137, 144, 97, 216, 132, 195, 38, 238, 396, 173, 273, 131, 140, 150, 157, 280, 284, 349, 85, 39, 57, 206, 58, 48, 83, 262, 244, 222, 117, 327, 23, 329, 288, 61, 112, 426, 344, 313, 179, 64, 315, 267, 350, 424, 26, 368, 56, 283, 349, 288, 3, 180, 167, 350, 242, 334, 219, 320, 115, 302, 428, 30, 345, 403, 341, 240, 152, 390, 325, 386, 14, 88, 351, 312, 116, 238, 232, 181, 361, 423, 55, 376, 27, 165, 69, 297, 342, 403, 353, 415, 77, 183, 143, 355, 246, 81, 292, 405, 40, 243, 212, 118, 248, 12, 55, 160, 296, 394, 197, 217, 16, 175, 31, 43, 347, 377};
    unsigned int BorderCounts[28] = {15, 14, 14, 17, 18, 19, 15, 21, 2, 16, 16, 12, 2, 21, 15, 21, 2, 15, 20, 18, 2, 20, 18, 17, 22, 27, 16, 17};
    float Borders[432] = {0.30324608f, 0.31038344f, 0.54637361f, 0.56110585f, 0.61710668f, 0.63879323f, 0.89363337f, 0.92181677f, 0.94643152f, 1.1411532f, 1.2821617f, 1.378516f, 1.8087704f, 2.0238061f, 2.5136299f, -1.9177985f, -1.7580676f, -1.5398986f, -1.439093f, -1.4239964f, -1.406952f, -0.75780189f, 0.3252514f, 0.36177522f, 0.62328589f, 0.82733226f, 1.1730913f, 1.240782f, 1.7521157f, -1.6889641f, -1.6254325f, -1.5846502f, -1.118844f, -1.0603063f, -0.90716451f, -0.67550993f, -0.65803176f, 0.44763479f, 0.49396572f, 1.4039383f, 1.5052004f, 1.5271175f, 1.6200567f, 0.18667099f, 0.63013613f, 0.79167128f, 0.90771383f, 1.2479964f, 1.3901324f, 1.4395446f, 1.5359619f, 1.6149496f, 1.751595f, 1.8034346f, 1.8214302f, 1.9890349f, 2.0162561f, 2.2699823f, 2.4551105f, 2.591311f, -1.4907777f, -1.3896501f, -1.3106422f, -1.1368449f, -1.1095469f, -0.8178637f, -0.73771256f, -0.58726716f, -0.48986709f, -0.11098357f, -0.0041793687f, 0.46569389f, 0.79479396f, 0.96964848f, 0.99974918f, 1.1333501f, 1.3488617f, 1.4218893f, 0.42895079f, 0.46211261f, 0.50361067f, 0.51780975f, 0.53920007f, 0.5462538f, 0.56901824f, 0.58298838f, 0.59883636f, 0.63181496f, 0.65531224f, 0.69534457f, 0.71522331f, 1.2947307f, 1.4661276f, 1.5377188f, 1.6500292f, 1.8746042f, 2.4990449f, -2.2310133f, -1.3264384f, -0.8734082f, -0.57138813f, -0.30947226f, -0.22678809f, -0.1842082f, -0.029237216f, 0.30744094f, 0.45250964f, 0.4945944f, 0.64213866f, 1.1892407f, 1.2887588f, 2.0225191f, -1.7232202f, -1.7121327f, -1.6885717f, -1.5718758f, -1.547206f, -1.0978849f, -1.0427245f, -0.93434405f, -0.75195462f, -0.70538712f, -0.67905426f, 0.0023270678f, 0.32169861f, 0.85084981f, 1.0845189f, 1.1183358f, 1.5662713f, 1.6003653f, 1.6230947f, 1.6463784f, 1.7328609f, 0.54326904f, 1.6298071f, 0.33968765f, 0.47560048f, 0.49914443f, 0.57783413f, 0.62649584f, 0.6766054f, 0.69152498f, 0.70764065f, 0.89114499f, 0.91852891f, 0.94245064f, 1.04758f, 1.0650177f, 1.4256682f, 1.4510379f, 2.5983334f, -2.6022499f, -2.0393388f, -0.68815798f, -0.61239082f, -0.47542712f, -0.45939946f, -0.39431745f, -0.37343287f, 0.10982549f, 0.15062317f, 0.50274616f, 0.5299446f, 0.65233767f, 0.67030811f, 1.0025179f, 1.1360818f, -1.6868887f, -1.6621988f, -1.6219735f, -1.4616277f, -1.4047577f, -1.2230508f, -0.64436334f, -0.3491911f, 0.16496137f, 0.71535254f, 0.72950071f, 1.5198557f, 0.55371803f, 1.661154f, 0.29881969f, 0.33227557f, 0.35247201f, 0.36467773f, 0.46645027f, 0.47444105f, 0.56971562f, 0.74674189f, 0.79565251f, 0.80856061f, 0.82612276f, 0.92385602f, 0.94089139f, 0.98023051f, 0.99226058f, 1.2696545f, 1.3438544f, 1.4650332f, 1.5283446f, 1.5946417f, 2.3858159f, -2.5972216f, -2.3382559f, -2.0710979f, -1.5295f, -1.4020653f, -0.86683893f, -0.32797176f, -0.25060061f, -0.047615163f, 0.55405927f, 0.97004282f, 1.164836f, 1.2799824f, 1.6185951f, 2.2503078f, -1.658581f, -1.6535884f, -1.6413844f, -1.6294575f, -0.90109003f, -0.33581191f, -0.19185813f, -0.14914352f, -0.095334217f, 0.39432237f, 0.71523672f, 0.81814015f, 1.1005003f, 1.1421056f, 1.2566583f, 1.3709338f, 1.41559f, 1.4854867f, 1.5343034f, 1.5467849f, 1.6713231f, 0.63705611f, 1.9111683f, 0.43788946f, 0.44799086f, 0.48170274f, 0.51991773f, 0.5358609f, 0.54632735f, 0.56458288f, 0.58941042f, 0.60632718f, 0.64600253f, 0.6629194f, 0.76502866f, 1.2888408f, 1.3485973f, 1.3904634f, -1.1605835f, -1.0135902f, -0.89824414f, -0.74417186f, -0.72293484f, -0.68254292f, -0.50265312f, -0.46392679f, -0.45351648f, -0.43644366f, -0.33608848f, -0.16660893f, -0.032107972f, 0.62915373f, 0.65455484f, 0.89773917f, 0.9726932f, 1.1263492f, 1.3449652f, 1.5048673f, -1.5157318f, -1.3764488f, -1.3700674f, -0.81571019f, -0.75605714f, 0.059214149f, 0.11969956f, 0.25093627f, 0.38827699f, 0.50980276f, 0.54171014f, 0.79752463f, 0.87354761f, 1.3474425f, 1.3898933f, 1.4168065f, 1.442055f, 1.4845058f, 0.77549034f, 2.3264711f, 0.47138539f, 0.52734709f, 0.57987696f, 0.71786487f, 0.75772822f, 0.81106836f, 0.82992673f, 0.83200204f, 0.83584774f, 0.84230357f, 0.85176301f, 0.92658591f, 0.94559425f, 0.96027684f, 1.0083106f, 1.1177959f, 1.3286048f, 1.3447744f, 1.6565855f, 1.7826633f, 0.55466831f, 0.6522212f, 0.6735692f, 0.75379431f, 0.809744f, 0.86757183f, 0.89939642f, 0.92650729f, 0.93415105f, 0.93811625f, 0.94705123f, 0.98105729f, 0.99015367f, 1.1996025f, 1.2283438f, 1.2476412f, 1.4468557f, 1.8128951f, 0.97428954f, 0.97560799f, 0.98329973f, 0.98356557f, 0.98387635f, 0.98435104f, 0.98464525f, 0.98532069f, 0.98572481f, 0.98590291f, 0.98612034f, 0.98638743f, 0.98737121f, 1.1294867f, 1.1459441f, 1.1617519f, 1.8223691f, 0.50009775f, 0.52053452f, 0.57104623f, 0.61258519f, 0.65022814f, 0.65901905f, 0.70235109f, 0.73834962f, 0.75592881f, 0.77137434f, 0.82100749f, 0.84146833f, 0.92625219f, 0.97600824f, 1.2539841f, 1.3058252f, 1.3682528f, 1.411531f, 1.441072f, 1.5387502f, 1.7980993f, 2.3689356f, 0.2309828f, 0.34702155f, 0.3665944f, 0.46031117f, 0.65781116f, 0.7970612f, 0.84916753f, 0.8737551f, 0.88992822f, 0.91787755f, 0.96042782f, 1.0061977f, 1.1317506f, 1.2138408f, 1.3122898f, 1.4662267f, 1.4942354f, 1.5181396f, 1.5556846f, 1.5842779f, 1.6088496f, 1.6286335f, 1.7078004f, 1.7679734f, 1.9523643f, 1.9973993f, 2.2919288f, 0.58016217f, 0.58635175f, 0.59942859f, 0.61987734f, 0.67450309f, 0.69276273f, 0.78345561f, 0.78830087f, 0.79831553f, 0.84020662f, 0.84542358f, 1.133436f, 1.1682153f, 1.1801261f, 1.2291913f, 1.7496014f, 0.5944612f, 0.60162532f, 0.73800993f, 0.74559152f, 0.75428659f, 0.75891471f, 0.77641624f, 0.78278065f, 0.90782666f, 0.93989599f, 0.96044582f, 0.96770567f, 1.0924927f, 1.1990995f, 1.2193885f, 2.2829971f, 2.5639491f};

    /* Aggregated array of leaf values for trees. Each tree is represented by a separate line: */
    double LeafValues[5796] = {
        0.01142857117312295, 0, 0.0194117642719956, 0, 0.01285714256976332, 0, 0.01636363599788059, 0, 0, 0.00599999986588955, 0, 0.004999999888241291, 0, 0, 0, 0.007499999832361937, 0.01714285675968442, 0, 0.01499999966472387, 0, 0.01499999966472387, 0, 0.01874999958090484, 0, 0, 0, 0, 0.008571428379842212, 0, 0, 0, 0, 0, 0, 0, 0, 0, 0, 0, 0, 0, 0, 0, 0, 0, 0, 0, 0, 0, 0, 0, 0, 0, 0, 0, 0, 0, 0, 0, 0, 0, 0, 0, 0,
        0, 0, 0, 0, 0, 0, 0, 0, 0, 0, 0, 0, 0, 0, 0, 0, 0, 0, 0, 0.007359374838648364, 0, 0, 0, 0, 0, 0.004760083932579815, 0, 0.007443749834876508, 0, 0.007377272565121, 0, 0, 0, 0.007359374838648364, 0, 0, 0, 0.007435714120950017, 0, 0, 0, 0.01353161808619356, 0, 0.007403571265244058, -8.571428188255858e-05, 0.006447835358606401, 0, -9.642856711787841e-05, 0, 0.01170142354191794, 0.007462499834038317, 0.01256218459975569, 0, -0.0001714285637651172, 0, 0.007371428409538099, 0.0147600837090624, 0.02181603805807923, -9.642856711787841e-05, 0.006810188928968078, 0.007414285550479379, 0.01463928798708052, 0, 0.00732077906115295,
        0, 0.007260195221183853, 0, -0.0002655909971896958, 0, 0, 0, 0.008218172506843183, 0, 0, 0, 0, 0, 0, 0, 0, 0, 0, 0, -4.835876410864538e-05, 0, 0, 0, 0, 0, 0.005683334745096085, 0, 0.01456070346524896, 0, 0.01454254239083444, 0, 0.01015348523149644, 0, 0.007260727784194483, 0, -9.570535288065942e-05, 0, 0, 0.007243710978232504, 0.0106919249070512, 0, 0, 0, 0, 0, 0, 0, 0, 0, 0.00382929320543593, 0, 0, 0, 0.007293283454998811, 0, -0.0001410696710016109, 0, 0.01691325214839831, 0, 0.02172188488913252, 0, 0.009559111226392367, 0.005757836851440645, 0.01127334202737881,
        0.007291515802058292, 0.01820511440772589, 0, 0.009416971960899998, 0, 0, 0.003298570290475578, 0.01305599755037443, 0, 0.00937581543539617, 0, -0.0003002832219773585, 0, 0, 0, -0.0003767551107086857, 0.009370994642071478, 0.0188885994827689, 0.007206272327030199, 0.00775172111744185, 0, 0, -0.0003255801047925497, 0.01902858096868091, -0.0002488221148357151, 0.00237953531680318, 0, 0, 0, 0, 0, 0, 0, 0, 0, 0, 0, 0, 0, 0, 0, 0, 0, 0, 0, 0, 0, 0, 0, 0, 0, 0, 0, 0, 0.00720574460738199, 0, 0, 0.007130369321971732, 0, 0, 0, 0, 0, 0,
        0, 0, 0, 0, 0, 0, 0, 0, 0, 0, -0.0002349634601509176, 0, 0, 0, 0, 0, 0.005376708737054993, 0, 0.01029535999516708, 0.01181410752040722, 0, 0, -0.0001581378544858064, 0, 0.01409523338255641, 0, 0.01671332457764629, 0.01556021938863708, 0.009340646494575772, 0, 0.008775097950152716, 0.01405454773771234, 0, 0, 0, 0, 0, 0, 0, 0, 0, 0, 0, 0.00711113042035134, 0, 0, 0, 0, 0, 0, 0.007202180440035191, 0, 0, 0, -0.0002863708240540412, 0.007076891553252265, -0.0001815455195693662, 0, -0.0006943905175076906, 0.01205243057470945, 0, 0, 0.004496472389917129, -0.0002531162578690669,
        0, -0.0005099185141046083, 0, 0, 0, 0, 0, 0, 0, 0, 0, 0, 0, 0, 0, 0, 0, -0.0002842230429216425, 0, 0, -0.0003004562053378501, 0.007022254001987173, 0, 0, 0, 0, 0, 0, 0, 0, 0, 0, -0.0003820187099215732, 0.007011663082073744, 0, 0.007030506349400636, 0, 0, 0, 0, 0.009477466777156071, 0.01541956983276184, -0.0003723058805467171, 0.005489993800547874, 0, 0, 0, 0, 0, 0, 0, 0, -0.0001569518206036727, 0.01166511073985039, 0, 0, 0, 0, 0, 0, 0.01639964812727073, 0.01485400057440526, 0, 0,
        0.01617994132470675, 0, 0.01044662932527547, 0, 0, 0, 0.006949903294926764, 0, 0, 0, 0, 0, -0.0002915889300209734, 0, 0, 0, 0.006905559358514839, 0, 0.005277131169280949, 0, 0, 0, 0.01112350031191563, 0, 0, 0, 0, 0, 0, 0, 0, 0, 0.01359546404270577, 0.01775888734696756, 0.007500943429683606, 0.00590794877669501, 0, 0.01108483072239512, 0, 0, -0.0004090276789212668, 0.008875243492789666, 0, -0.0005523663422040865, 0, 0, 0, 0, 0.01365431880986228, 0.006977382878719504, 0.006942557913682652, 0, 0, 0, -0.0003355481344705795, 0.006936326539195868, 0, 0, 0, 0, -0.000367698892995489, 0, 0, 0,
        0.006894641324398988, 0, 0, 0, 0, -0.0004039667613339879, 0, 0, -0.0008036090307377581, 0, 0, 0, 0, 0, 0, 0, 0, 0, 0, 0, 0, 0, 0, 0, 0, 0, 0, 0, 0, 0, 0, 0, 0, 0.00657446632312575, 0, 0.006778137670111637, 0.01280122517178191, 0.01185326495330041, 0, 0.01699913985476514, 0.0132827300404092, -0.0008244965699629349, 0, 0, 0.009647917325350386, 0.01451115309868364, 0.01101597178869801, 0, 0, 0, 0, 0, 0.01268291106211315, 0.01301109833571573, -0.001045452438015032, -0.0005981785044439648, -0.0004001687618893601, 0, 0, 0, 0.01154131042283032, 0, 0, 0,
        0.01071118489699074, 0, 0, 0, 0.01694264971975923, 0, 0, 0, 0, 0, 0, 0, 0.002451638074510259, 0.006783677136350187, 0, 0, 0, 0, 0.003790652544341265, 0, -0.001260601566499667, 0, 0.01029894383457213, 0, 0, 0, 0, 0, 0, 0, 0, -0.0005863031557945436, 0, 0, 0, 0, 0.01661044876805087, 0, 0, 0, 0, 0, 0, 0, 0, -0.0004317133850538462, 0, 0, 0, 0, 0, 0, 0, 0, 0.006667631075414428, 0, 0, 0, 0, 0, 0, 0, 0, 0,
        0, 0, 0, 0, 0, 0, 0, 0, 0, 0, 0, 0, 0, 0, 0, 0, 0, 0, 0, 0, 0, 0, 0, 0, -0.0006326503145322648, 0, 0.006494672316574602, 0, 0, -0.001151571184124811, 0, 0.01058681488053525, -0.0007724133712816519, 0.006763100207543483, 0, 0.006464151900182956, 0.006568136613751648, 0.004866145536431495, 0, 0, 0, 0, 0, 0, 0, 0, 0, 0, 0, 0, 0.00666788726415418, 0, -0.0007523612810660925, 0, -0.0006354204081180564, 0, 0.009049658896792847, 0.01215327494675147, 0.005060273642018143, 0.01840375239555063, 0.01426654899186244, 0.009936696268668084, 0.01493050804160534, 0.0059826968445813,
        0.01030510067321239, 0, -0.0007666202711265254, 0, 0, 0, 0, 0, 0, 0, 0, 0, 0, 0, 0, 0, 0, 0, 0, 0, 0, 0, 0, 0, 0, 0, 0, 0, 0, 0, 0, 0, 0.01477353417578656, 0.009422065082488381, 0.01096296661503753, -0.0005170110756031901, -0.0005655591333383539, 0.003096079060709376, 0.01031597782869315, 0.009588726633774513, 0.006499171840182493, 0.01083714345531686, -0.0006212806688877781, -0.0004997437777799566, 0, 0, 0, 0, 0.01363893125855502, 0.01404415144033043, 0.002277677602715483, 0.002482747682899123, 0.01008794024743608, 0.01348829290023188, 0.006292282213482753, 0.003651061767506808, 0, 0.006096339732052466, 0, 0.003634000772804436, 0.004751655805740418, 0.01006180455673704, 0, 0.006301697417048353,
        0.01449042499279963, 0, 0.01059202399517937, 0.007869892426665361, 0, 0, 0, 0, 0, 0, 0, -0.001009273301676676, 0.003564255463310527, 0.003380634491919574, 0.01137453137875399, 0.01459930744148386, 0, 0, 0.01291573508100081, 0, 0, 0, 0, 0, 0, 0, 0, 0, 0.01037930902039748, 0.006583123841681032, 0.01080243982386555, 0.008118674871164657, 0.00445323379242311, 0, 0.004309291999470787, -0.000513133492622837, 0, 0, 0, 0, 0, 0, 0, 0, 0.006526944587351989, 0.006254434687476895, 0.006046860400723878, 0.01255960190572637, 0, 0, 0.006494925221757943, 0, 0, 0, 0, 0, 0, 0, 0, 0, -0.0010773785775016, 0, 0.008260790631807659, 0,
        0, 0, 0.006188278764047475, 0, -0.0006943822929430253, 0, 0, 0, 0.002971625585080434, 0, 0.009956195110309469, 0, 0.01066400610972753, 0, 0.01189571337030665, 0, 0, -0.001375633489931321, 0, 0, 0.004646625239628331, 0.004699344845745452, 0, 0, 0.01289431203877984, 0.004703487953061008, 0.00598108489057884, 0.004329813382224045, 0.0128103505123397, 0.008385989553831239, 0.01285493810664678, 0.0124658547068493, 0, 0, 0, 0, 0, 0, 0, 0, 0, 0, 0, 0, 0, 0, 0, 0, 0, -0.0006467908838610992, 0, 0, 0, 0.006257826322270911, 0, 0, 0, 0.00638495106833576, 0, 0.004677643208387215, 0, 0.01178809730905546, 0, 0.002332537726904071,
        -0.0006069274354866903, -0.0007975830962924321, 0, 0.004953129109426753, 0, 0, 0, 0, 0.006141866674354509, 0.002852205684582434, 0.0127188560132482, 0.01847321019765453, 0, 0, 0, 0.006061731282540404, 0, 0, 0.006320153773890035, 0.005387271204170155, 0, 0, 0, 0, 0, 0.006212956319672779, 0.01020593680370388, 0.002720602613736538, 0, 0, 0, -0.0007418925849787144, 0, 0.006234372925557815, 0, 0.01306856094774054, 0, 0, 0, 0, 0, -0.0006863959514504004, 0.006106947169182101, 0.0132449593120238, 0, 0, 0, 0, 0, -0.0007419525600022783, -0.001016093088002594, 0.007638801906383003, 0, 0, 0, 0, 0, 0, 0, 0.009218769460253117, 0, 0, 0, 0,
        0.00574588535474308, 0.01217976387102928, 0.01343815820343975, 0.008187315037177898, 0.01171058585116757, 0.004575486858012597, 0.01089584697366013, 0.006301554019006187, 0, 0, 0.006027297617498719, 0, 0, 0, 0, 0.01006150681475348, 0.0086843485369294, 0.006458221778873575, 0.01099938306330941, -0.00142421027343189, 0.0137312884924711, 0.005956071809108371, 0.004242912227027348, 0.004498102049853103, 0, 0, 0, 0, -0.0006919180235605947, 0, 0, 0,
        0, 0, 0, 0, 0, 0, 0, 0, 0, -0.0008242173078472576, 0, 0, -0.0009176768354008261, 0, 0, 0, 0.003944500433195409, 0, 0, 0, 0, 0, 0, 0, 0, 0, 0, 0, 0, 0, 0, 0, 0.01377572373240229, 0.003304362928962964, 0.009510756475590115, 0, 0.002945034514429265, 0, 0, 0, 0.005562640707994598, 0.004462209851511159, 0.004097939716532464, -0.001597798565360499, 0.01422650941712609, 0, 0.007349159841072659, 0.009996107913561836, -0.001376796678551207, 0.007427652346477153, 0.006363561407072095, 0, 0.01191957326651236, -0.001027246934068898, -0.001303785539445867, 0, 0.01644555709452183, -0.002046181079110871, 0.01481823011780753, -0.00115182376994137, 0.009404146203863872, 0, 0.007305169326819914, 0,
        0.009773353362450376, -0.0007427983765938429, -0.001627367043878749, 0, 0.01274839111616305, 0.006183148663887753, 0.009582490035566604, 0.01216704139527169, -0.001151828643391079, 0.005813226860860431, 0, 0, 0.008755906354183619, 0.01185809520744088, 0.01173913573565228, 0.006180450071937501, 0, 0, 0, 0, 0.003825307136687617, 0, 0, 0, 0, 0, 0, 0, 0, 0, 0, 0, 0.005743981642505815, 0.004120946364804714, 0, 0, -0.0018057021271632, 0, 0.005799908794374125, 0, -0.0008465780463236148, 0, 0, 0, 0.002255906989788356, 0.009605184002484854, 0, 0, 0, 0, 0, 0, 0, 0, 0, 0, 0, 0, 0, 0, 0, 0, 0, 0,
        0, 0, 0, 0, 0, 0, 0.005933061090156479, 0, 0, 0, 0.01207011488042364, -0.0007158981071455029, 0, 0, 0.006045787085158513, 0.006034444194876131, 0, 0, -0.0009764635554777115, -0.001185905787955648, 0, 0, 0, 0, 0, 0.01365283941681937, 0.007044275177308221, 0.007081715538697192, 0, 0, 0.005793081914737317, 0.006156279725057668, 0, 0, 0, 0, 0, 0, 0, 0, -0.001298620512020262, 0, 0.003776074706742264, 0, 0, 0, 0.009549001516119343, 0.006134096697434048, 0, 0, 0, 0, 0, 0, 0, 0, -0.002651521524835809, 0.007530642753612097, 0.008308492353062139, 0.01140586715591877, 0, 0, 0.005658951528584477, 0.01237351076709148,
        -0.001401798233498088, -0.001023069491062079, 0, 0.005665033839807529, 0, -0.001192364151085288, 0, 0, -0.001042525708466515, -0.00195157638170555, 0, 0.01386482400331607, -0.0009648059223728652, 0, 0, 0.005702178881995995, 0.004317781757421388, -0.0007105288714619234, 0.005937133874621185, -0.001096791829398325, 0, 0, 0, 0.005887474800268118, 0, 0.01322123229294586, -0.0011963027941118, 0.007673263558948491, -0.001374833659115946, 0, 0, 0, 0, 0, 0, 0, 0, 0.005822203504655403, 0, -0.00165078368290172, 0, 0, 0, 0.01040748021686547, 0, 0, 0, 0, 0, 0.01161882247273254, -0.001769708772602219, 0.009366253897333981, 0, 0, -0.001279954447151005, 0.00240177995512984, 0.005897804640543266, 0.006399385194843393, 0.009271133453983277, 0.01233968108931615, 0.005684083658621162, 0.007696215214229286, 0.007310619702765569, 0.007700030235419523,
        0.01143599297091467, 0, 0, -0.0008616409353864797, 0.01341624532181469, 0.008767694437084261, 0.004523306712160095, 0.01079860075499325, 0, 0, 0, 0, 0.01130197800793678, 0.003837625922671656, 0.002094340486569771, 0.009448920511497655, -0.001593200674709654, 0, -0.001234761720219612, 0, 0.01261549643992198, 0.004803973342898562, 0.01324441085881121, 0.006837952474068585, 0, 0, 0, 0, 0.006922433260651519, 0, 0.005422881752775222, 0.008936076632627788, 0.006187615224971144, 0, 0, 0, 0.001271385338542652, 0.004056788127767043, -0.00082462259784662, 0.0112028741085341, 0, 0, 0, 0, 0.002876951062685546, 0, -0.001559984949428628, -0.001445972213955278, 0, 0, 0, 0, -0.0009575698781168069, 0, 0, 0.009403001549530741, 0, 0, 0, 0, 0, 0, 0, 0,
        0.008278828572023526, -0.001854576725016643, 0, 0.00556319815017974, 0.0101482427246024, 0.01531213372043137, 0, 0.0053775207477701, -0.001673664048012835, 0, 0, 0, 0, -0.0008612188747362063, 0, 0, 0.006814751094143625, 0.008923915436870029, 0, -0.000950388104191456, 0.001813146694597523, 0.007312554689254644, -0.001704160512365023, 0, 0, 0, 0, 0, 0, 0, 0, 0, 0, 0.005452797007755585, 0, 0, 0.005819605882545482, 0.008870391119782771, 0.005563619771416566, 0, 0, -0.0008551786285155251, 0, 0, 0.005936570518198299, 0, 0, 0, 0, 0, 0, 0, 0.005687686059737917, 0.0116140741680373, 0, 0, 0, 0, 0, -0.0009714252927619602, 0, 0, 0, 0,
        0, 0, 0.005755450094559147, 0, 0, 0, 0, 0, 0, 0, 0, 0, 0, 0, 0, 0, -0.0008033209172138108, 0, 0.0124964507459521, 0.01051998095106793, -0.0008786320722949636, 0, -0.001275365247588568, -0.0009641396032290934, 0, 0, 0, 0, 0, 0, 0, 0, 0, 0, 0, 0, 0, 0, 0, 0, 0, 0, 0, 0, 0, 0, 0, 0, 0, 0, -0.001263209902163957, 0.01275165304669139, 0, 0, 0, 0, 0.01126833992912993, 0, 0.005465710342363288, 0.01327758370565233, -0.0008547597333200577, 0, 0, 0.005892046240307007,
        0, 0, 0, 0, 0, 0, 0, 0.005333001175742054, 0, 0, 0, 0, 0, 0, 0.005386685526940479, 0.005226376313550686, 0, -0.001445614709853548, 0, 0, 0, 0.01155586895351179, 0.0062290719145414, 0.01270499927513308, 0, 0, 0, 0, 0, 0.005673442061769055, 0.01131117730304954, 0.01022935257647402, 0, 0, 0, 0, 0, 0, 0, 0, 0, 0, 0, 0, 0, 0, 0, 0, 0, 0, 0, 0, 0, -0.0008720423319000434, 0, -0.0006371850052419443, 0, 0, 0, 0, 0, 0, 0, 0.005223275776910359,
        0.005897378110773231, 0.005691721063967236, -0.003062285817660691, 0.01521354411351856, 0, 0, 0, 0, 0, 0, 0, 0, 0, 0, 0, 0, 0, 0, 0.005665566181499955, 0, 0, 0, 0, 0, 0, 0, 0, 0, 0, 0, 0, 0, 0, 0, 0, 0, 0, 0, 0, 0, 0, 0, 0, 0, 0, 0, 0, 0, 0.01060093818194418, 0.01089595624451335, 0.000756329739065792, 0.01142478730184854, 0.006840190062125664, 0.0008918035903553331, 0.001683832921307238, 0.01206308577647709, 0, 0, 0, 0, -0.0007323211593551713, 0.01282539862905945, 0, -0.0009228857568819812,
        0.01369598038447711, 0.0114458169463269, -0.002848366328526225, 0.003264268778177036, 0.008121044925783092, 0.008034435784197439, -0.001299687933952232, 0.002906996249928243,
        0.004119104847944872, 0, 0.0007127998875735036, 0.01187470994266956, 0.008324443869157193, 0, -0.003407103345031217, 0.007919646523660458,
        0, 0, 0, 0, -0.004204486672840234, 0.008623270313829454, 0, 0, 0, 0, 0, 0, 0.01059962676625457, 0.005509549436256257, 0.01085680121931267, 0.005415887231113089, 0.0005143178234511285, 0, 0, 0, 0.01434469537482709, 0.004428191336169287, 0.002921468576656437, -0.00103919763246917, 0, 0, 0, 0, 0.01085732241893484, 0.0105224052774238, -0.002678324893029513, -0.001812631690513087, 0, 0, 0, 0, 0, 0, -0.0008761473403967442, 0, 0, 0, 0, 0, 0, 0, -0.001065282703474049, 0, 0, 0, 0, 0, 0, 0, 0, 0, 0, 0, 0, 0, 0, 0, 0.01067558502777957, 0.003543160948393321,
        0, 0, 0, 0, 0, 0, 0, 0, 0, 0, -0.002942125725622718, 0.004756919242231129, 0, 0, 0.006063121868145605, 0.008548561910415793, 0, 0, 0, 0, 0, 0, 0, 0, 0.004907952378895903, 0, 0.01381070353107076, 0.008616964066260937, 0, 0, 0.009446870601836001, 0.003607522871360968, 0, 0, -0.001212225552334631, 0, 0, 0, 0, 0, 0, 0, -0.002386934830507832, -0.001436026548838061, 0, 0, -0.001290901209382064, 0.002703022771685938, 0, 0, 0, 0, 0, 0, 0, 0, 0, 0, 0.00641812004526262, 0.0009756338286131862, 0, 0, 0.01269208928959551, 0.005721419916467971,
        0, 0, 0.005123950579658105, 0, 0.009748779605317221, 0.005080321002726842, 0.00885720155542738, 0, 0, 0, -0.001596153964898268, 0, 0.01229901276836124, 0.002520539272051031, 0.007415476518157133, 0, 0, 0, 0, 0, -0.001429017036188509, 0, -0.001419529285074817, 0, 0, 0, 0, 0, 0.002770953191980233, 0, 0.005037661772600693, -0.001137422781612779, 0, 0, 0, 0, 0, 0.009454303478777439, 0, 0.001814576910362379, 0, 0, 0, 0, 0, 0.007831153738300251, 0, 0.0001791179050076667, 0, 0, 0, 0, 0, -0.001203133860895336, 0, 0, 0, 0, 0, 0, 0, 0, 0, 0,
        0, 0, 0, 0, 0, 0, 0, 0, 0, 0, 0, 0, 0, 0, 0, 0, 0, 0, 0, 0, 0.005246440348029895, 0, 0, 0, 0, 0, 0, 0, 0, 0, 0, 0, 0, 0, 0, 0, 0.004778900143176016, 0, 0, 0, 0, 0, 0, 0, 0, 0, 0, 0, -0.003564427708673314, 0.004968390581824506, 0, 0, 0.009509077022568648, 0.009084822003675637, 0.01226306672646411, 0.004999879310150692, 0, -0.001128892110941359, 0, 0, 0.0009154658103292578, 0.01123886403798621, 0, -0.002813542855485193,
        0, 0, -0.00266815079474551, 0, 0, 0, -0.001510183752561216, 0.01406162769953315, 0, 0, 0.004716855811059952, 0.01116279151918716, 0, 0, 0.01010084859732811, 0.003054421959534578, 0, 0, 0, 0.005247232308920294, 0, -0.002611940718214823, 0.003020720265560176, -0.001393930877021794, 0, 0, 0.005546675621809857, 0.001312521057868643, 0, -0.001518528057819799, 0.006543882985002551, 0.01087459517500106, 0, 0, 0, 0, 0, 0, 0, 0, 0, 0, 0, 0, 0, 0, 0, -0.002328770408590156, 0, 0.004861501281407461, 0, 0, 0, 0, 0, -0.001786890937154651, 0, 0, 0, 0, 0, 0, 0.002407731379870427, 0.006693065821912153,
        0.008393338787389333, 0.009043341513010367, 0.005637162461478786, 0.01218235785498579, 0, 0.004478121172967304, 0, 0.004666189013030684, 0, 0, 0, 0, 0, 0, 0, 0, 0.0002216781541688634, 0.006822136622988743, 0.004774619447520123, 0.007000663551314844, 0, 0.004788224361406667, 0, 0.004931975231378309, 0, 0, 0, 0, 0, 0, 0, 0, -0.001368486836666377, 0, 0, 0, 0, 0, 0, 0, -0.00169958001859389, 0.006227896430698822, 0, -0.001648884733881192, 0, 0.001766435299659633, 0.004933193269718396, 0, 0, 0, 0, 0, 0, 0, 0, 0, 0, 0.00643377175281764, 0, -0.001082104388082905, 0, 0, 0, -0.001105114787844823,
        0, 0, 0, 0, 0, 0, 0, 0, 0, 0, 0, 0, 0, 0, 0, 0, 0, 0, 0, 0, 0.005300669582403036, -0.00244903685726626, 0, 0, 0, 0, 0, 0, 0, 0, 0, 0.004946220509368928, 0, 0.004757214962780309, 0, -0.001508801683759818, 0.006945049106204442, 0.01011891334842015, 0.004395362557345991, 0.00918938186820554, 0, 0, 0, 0, 0, 0, 0, 0.002596010714768835, 0, 0, 0, 0, 0, 0.006459609895131222, 0.004859711625428356, 0.005863053679901429, 0, -0.001636518098653499, 0, 0, 0, -0.002003162741732622, 0, 0.005269970968764075,
        0.005068063312482254, 0.007584338361927143, 0, 0.00251477585844304, 0, 0, 0, 0, 0, -0.001552182959333281, 0, 0, 0, 0, 0, 0, 0, 0, 0, 0, 0, 0, 0, 0, 0, 0, 0, 0, 0, 0, 0, 0, 0.002450121192072157, 0.009277570114325562, -0.002208981979727543, 0.007668969152805606, 0.01082097608757801, 0.01182920915870579, 0.005041740792046482, 0.005151118093157357, 0, 0.001019744614921688, 0, -0.001670651007487031, -0.002280541709415195, 0.009018695993449217, 0, 0, 0, 0, -0.001237137479220745, 0, 0, 0, 0.001536204795168819, 0.001638012578667753, 0, 0, 0, 0, 0, 0, -0.001050804936329208, -0.001911306708201614,
        0, 0, 0, 0, 0.002708800750973324, 0, 0, 0, 0, 0, 0, 0, -0.001449213510892576, 0, 0, 0, 0, 0, 0, 0, 0, 0, 0, 0, 0, 0, 0, 0, 0, 0, 0, 0, 0.003099938299711042, 0.002866789016435242, 0.00476264343802698, 0.005695208266515897, 0.01282174962183276, 0.005916944192262449, -0.001658121125210942, 0.00136336286712401, 0, 0, 0, 0, -0.002486087226468165, 0.004695623810388279, 0, 0, 0, 0, 0.004865202705390683, 0, 0.009176406074291923, 0.007528492448858371, 0.004867710110329966, 0.007713895833876743, 0, -0.001543235493418324, 0, 0, 0.004611505745659258, 0, 0, 0,
        0, 0, 0, 0, 0, 0, 0, 0, 0, 0, 0, 0, 0, 0, 0.004702986207130072, 0, 0, 0, 0, 0, 0, 0.004650594763977973, -0.001638347297002034, 0.002128188991681754, 0, 0, 0, 0, -0.001953891322878513, 0, 0.004884856857270473, 0.001918101842267137, 0, 0, 0, 0, 0, 0, 0, 0, 0, 0, 0, 0, 0, 0, 0, 0, 0, 0, 0, 0, 0, 0.003034600816430826, 0.007675333087065958, 0.003553009543206551, 0, 0, 0, 0.006872288928291409, 0.004902636595933093, 0.00517230967953897, 0.004537140593168524, 0.008804536985976287,
        0.006301171909147515, -0.0002113635026132535, 0.001968979959469834, 0.01215802082034007, 0.001706278912707569, 0.007098218197846572, -0.000483655827247431, 0.01477061158091218, 0, 0.004338134125835352, 0, 0.003374419315126262, -0.001893333891915525, 0.0009565589609757229, 0.009292293904506789, 0.0001076848790341148, 0, 0, 0, 0, 0, 0, 0.004489570310139895, -0.002825003071244514, 0, 0, 0, 0, 0, 0.004615715304027755, 0, -0.001711719242968671, 0, 0.004676997911027307, 0, 0.005215721968125631, 0.004076479260690173, 0.003897702106744917, 0.002629256582094916, -0.002075554766335971, 0, 0, 0, 0.004765168259399658, 0.001962024209327814, 0, 0.004754451870925431, -0.001596057198860768, 0, 0, 0, 0, 0, 0, 0, 0, 0, 0, 0, 0, 0, 0, 0, 0,
        -0.001163665979940914, -0.002478634075786667, 0, 0.007490421979155424, 0, 0, 0, 0, -0.005090171110051079, 0.007257838754066128, 0.007508217485763248, 0.006897732194258198, 0, 0, 0, 0, 0, -0.001964545282582237, 0, 0, 0, 0, 0, 0, 0, 0, 0.004305598120618824, -0.002803815548683758, 0, 0, 0, -0.001483474576068665, 0.006863556895270276, 0.005164071542289732, -0.002331036363493054, 0.01465693281966307, 0, -0.00237015868916911, 0, -0.001457639184977117, 0.009098509416461811, 0.007508656439165777, 0.001444597865204131, 0.001854342648602317, 0, 0, 0, 0.00435627952101791, 0, 0.00692164462878194, 0.004104742293417229, 0.009045870793392493, 0, 0.004805570717176635, 0, -0.003156896920355272, -0.001643250521414857, 0.005223811728919054, 0.007105350435901476, 0.001925924279502522, 0, 0, 0, 0.004723561746110411,
        0, 0, 0, 0, 0, 0, 0, 0, 0, 0, 0, 0, -0.001949811193292202, 0.004336964492856638, 0, 0, 0, 0, 0, 0, 0, 0, 0, 0, 0, 0, 0, 0, 0, 0, 0, 0, 0, 0, 0, 0, 0.006096311647854015, 0.004706414984213889, -0.001708689568026562, 0.004460933029787582, 0.005363294826171849, 0, 0, 0, 0.008237730363104739, 0.009283528636610852, 0.002264505829291466, 0, 0, 0, 0, 0, -0.003790659127927539, -0.001776822534041981, -0.001452752524277153, 0, 0.0001488695210830738, 0, 0, 0, 0.008193742194517923, 0.0009561830718573675, 0, -0.001576291645000522,
        0, 0, -0.001512573227294033, 0, 0, 0, 0, 0.004462347544334979, 0, 0, 0, 0, 0, 0, 0, 0, -0.001948837280362588, 0, 0.004915903556217729, 0.005280654887477474, 0.001855693861681827, 0, 0.01044488066529234, 0.009309597927921777, 0, 0, 0, 0.0007397934293358401, 0, 0, 0, 0.00265041864851991, 0, 0, 0, 0, 0, 0, 0, 0, 0, 0, 0, 0, 0, 0, 0, 0, 0, 0, 0.004641250128215832, 0.003293460961583343, 0, 0, 0, 0, 0, 0, 0, 0, 0, 0, 0, 0,
        0.003673096943345488, -0.001501228928342893, 0.00463287692370771, 0.004569573720270502, 0.008725562082252603, -0.002065231037237705, 0.004374935280693364, 0.0001765935465071088, -6.494255850460104e-05, 0, 0, 0, 0.007821206792397367, 0, 0.004734855569586463, 0.004557308956458549,
        -0.001745826563385985, 0, -0.003039289003338774, 0, 0.01011120635454043, 0.001971271041196992, 0.009110443461272211, -0.001436423080341059, 0, 0, 0, 0, 0, -0.002111576490360722, 0, 0, 0, 0.004445838637936176, 0, -0.001305211164140972, 0, 0.0003585658828916776, 0, -0.00407660901767532, 0, 0, 0, 0, 0, 0, 0, 0.00420546983103169, 0.004574050316916807, 0.007152608569766142, 0.002094662350116947, 0, 0.004678986397159605, -0.003481769457206193, 0.006923929428891741, 0.005254288925597441, 0, 0, 0.004405872317262557, 0, 0, 0, -0.00164339561109454, 0, 0, 0.006351350030873203, 0, -0.002897864776924767, 0, 0.008594036019970641, 0, 0.01062425289123144, 0, -0.00150606438081646, 0, 0, 0, 0, 0, -0.001915374675583275,
        0, 0, 0, 0, 0, 0, 0, 0, 0, 0, 0, 0, 0, 0, 0, 0, 0, 0.004318291419312704, 0, 0, 0, 0, 0, 0, 0.003906770969578028, 0.00653479567546973, 0, 0, 0, -0.002197718057980582, 0, 0, 0, 0, 0, 0, 0, 0, 0, 0, -0.002948168855890352, 0.005219699293806285, 0, 0, 0, 0.002302884221237744, 0, 0, 0.008446677068317598, -1.509787525927799e-05, 0, 0, 0, 0.002103008680111456, 0, 0, 0.003570783767134824, 0.00797172894464509, 0, 0.004154901813969383, 0, 0.003849170606263132, 0, -0.00201401054167627,
        0, 0, -0.002684354315138573, 0, 0.004336440395813593, 0, 0, 0, 0.004654115063116001, -0.001706796155537124, -0.0001023957209684622, 0.00537333245795589, 0.007589157505796935, 0.004297197876904821, 0.006842570487225288, 0.005458263908167974, 0, 0, 0, 0, 0, 0, 0, 0, 0, 0, 0, 0, 0.001699867670487848, 0, 0, 0, 0, 0, 0, 0, 0, 0, 0, 0, 0, 0, 0.007352534714467904, 0.004114140842255476, 0.006428552179748504, 0, 0.008619145822629964, 0.006669419958717273, 0, 0, 0, 0, 0, 0, 0, 0, 0, 0, 0, 0, 0, 0, 0, 0,
        0.005710444715346225, 0.004484937795200202, 0.007624790932478453, -0.001830949934877931,
        0.006545708217828876, -0.002055935613133856, 0.008069767304034034, 0, 0, 0, 0, 0, 0.002031968829708233, -0.001527806079108692, 0.0008271919386494483, 0, 0.004654591234750609, 0, 0, 0, 0.006778745714074881, -0.001963781104484674, 0.008666040997638718, 0, 0, 0, 0, 0, 0, 0, -0.002411144302884585, 0, -0.001396842981849396, 0, 0, -0.001582560256879045, -0.002923540993842525, 0, 0.001514152234032455, 0, 0, 0, 0, 0, 0, 0, 0, 0, 0, 0, -0.001214427017862737, 0, 0, 0, 0, 0, 0, 0, 0, 0, 0, 0, 0, 0, 0, 0, 0, 0,
        0, 0, 0, 0, 0, 0, 0, 0, 0.001815705882540337, 0, 0, 0, 0, 0, 0, 0, 0, 0, 0, 0, 0, 0, 0, 0, 0, -0.002271552058037076, 0, 0, 0, 0, 0, 0, 0.003860596519514043, 0, 0, 0, 0.003877000848086609, 0, 0.001637159297687272, -0.003201784455394529, -0.0007439996558332403, 0, 0, 0, 0.007673992703580395, 0.005031634606905856, 0.009580667624186877, 0.005194596894242502, 0, 0.00440220795195164, 0, 0, 0, 0, 0, 0, -0.001681132361689374, 0, 0, 0, 0.003662928175827268, 0.005201815572920333, -0.002577978968003821, 0.0003760296570943396,
        -0.0006816483383404292, 0, 0, 0, 0, 0, 0, 0, 0, 3.699363325272323e-05, 0, -0.001458221665295006, 0, 0.004013689269253547, 0, 0, 0.009469578171926457, -0.0008087289896591371, 0, 0, -0.002464915726592467, 0, 0, 0, 0, 0.005828644611378179, 0, -0.001551356213389888, 0, 0, 0, 0, 0, 0, 0, 0, 0.003597761568962922, 0, -0.001571439437854987, 0, 0, 0, 0, 0, 0, 0.008906621841123088, 0, -0.00324989296864821, 0, 0, 0, 0, 0.001316902922255278, 0.001858258106748005, 0, -0.002100108358738095, 0, 0, 0, 0, 0, 0.009729286034913749, 0, 0.004969927282787103,
        0, 0, 0, 0.004038246910408219, 0, 0, 0, 0, 0, 0.001778032768729422, 0.003651434379085204, 0, 0, -0.003032487956671498, 0, 0.004197978894681501, 0, 0, 0, 0, 0, 0, 0, 0, 0, 0, 0, 0, 0, 0, 0, 0, 0, 0, 0, 0.004516386363430055, 0, 0, 0, -0.002184101795630528, 0.00830033266408493, -0.002103944513526572, -0.001449931161799036, 0.007784891439212138, -0.001900382517736711, 0.002161557062635248, 0.003758672402634016, 0.004350767321986673, 0, 0, 0, 0, 0, 0, 0, 0, 0, 0, 0.003441669457993418, 0.007064965136762482, 0, 0, 0, 0.003509987522695867,
        0, 0, 0, 0, 0, 0, 0, 0, 0, 0, 0, 0, 0, 0, 0, 0, -0.002210831900335913, -0.002092687769108349, 0, 0, 0, 0, 0, 0, 0, 0, 0, 0, 0, 0, 0, 0, 0.006088801214253837, 0, -0.001532133857624361, 0, 0, 0, 0.003567623997649364, 0, -0.0009538235741321361, 0, 0, 0, 0, 0, 0, 0, 0.00556200274717462, 0.004729667119884964, 0.007949606838303999, 0.009302129379364085, 0, 0.001418807541911436, -0.002142744230888664, 0, 0.001454802994956667, 0.0007980901801751983, -0.004004391385007863, 0.005715486768498591, 0, 0, 0, 0,
        0, 0, -0.002610526621196469, 0, 0, 0, 0, 0, 0, 0, 2.974044345489593e-05, 0, 0, 0, 0, 0, 0, 0, 0, 0, 0, 0, 0, 0, -0.00230984391511023, 0, -0.001524751568975614, 0, 0, 0, 0, 0, 0.004440798446790042, 0, 0.009547401919770574, 0, 0, 0, -0.001930273312035878, 0, 0.004468651204580333, -0.002076992611190851, 0.002942486562940925, 0.004998671480513413, -0.001883934619765501, 0, 0.001192522877907931, 0, 0, 0, 0.001859797817353315, 0, 0, 0, 0, 0, 0.006195288050108893, 0, 0.008595084427623667, 0.005997485212402969, 0, 0, -0.002534636399331547, 0,
        0, 0, 0, 0, 0, 0, 0, 0, -0.001726633730112721, 0, 0, 0, 0, 0, 0, 0, 0.003596253259692204, 1.954216080662522e-05, 0, 0, 0, -0.002477719185196676, 0, 0, 0.005700628971138908, 0.006923251071355979, 0.007333477848729394, -0.002134985108719345, 0.001216430871195158, 0.001246310999824871, 0.003576942543393787, -0.003214837926942455, -0.002093910647396095, 0, 0, 0, 0, 0, 0, 0, 0, 0, 0, 0, 0, 0, 0, 0, 0, 0.003878857334931264, 0, 0, 0, -0.001513315932463903, 0, 0, 0.007100905346380524, 0.005640170379594696, 0.00336772584604305, 0, 0.00647042207634491, 0.000907159401885392, -0.001675057215301401, -0.001540884517775647,
        0, 0, 0, 0, 0, 0, 0, 0, 0, 0, 0, 0, 0, 0, 0, 0, 0.004013263297533914, -0.0005027799628795802, 0, 0, -0.001662494286467444, 0, 0, 0, 0, 0, 0, 0, 0, 0, 0, 0, 0, 0.003789997166130182, 0, 0, 0, 0, 0, 0, 0, 0, 0, 0, 0, 0, 0, 0, 0.004874025961273874, 0.006007877882402305, -0.00212463101433185, 0, 0.004003354631705995, 0.004446499819707775, 0, -0.00184569382651994, 0.005753731850547027, 0.01054084570341135, 0, 0, -0.002104169883283002, -0.004841008484006904, 0, 0,
        0.004043234158998441, 0, 0, 0, 0, 0, 0, 0, 0, 0, 0, 0, 0, 0, 0, 0, 0.003539181886788653, 0, 0, 0, 0.001521137814614824, 0, 0.004119659288277452, 0.0002576867145725868, 0, 0, 0.00044351836567222, 0, -0.002989363158580694, 0, 0.007150178383977112, -0.00390767780454985, 0, 0, 0, 0, 0, 0, 0, 0, 0, 0, 0, -0.001452867088955098, 0, 0, 0, 0, 0, 0, 0, 0, 0, 0, 0.005200653368190327, 0.001656875268612595, 0, 0, 0, 0, 0, 0, 0.0068072107351348, 0,
        0.001536180752272096, -0.001610690124335674, 0, 0.003904235104962774, 0, 0, 0, 0, 0.001338998798761843, -9.653687029078877e-05, 0.007744821419846567, -0.001222874544532214, 0.002825168046575808, 0, -0.004449129373975663, -0.001441970586031491, 0, 0, 0, 0, 0, 0, 0, 0, 0, 0, 0, 0, 0.008820251683273116, 0, 0, 0, 0.00389184318708599, 0, 0.003840578590797454, 0, 0, 0, 0, 0, 0.009007149215437419, -0.004293432297232282, -0.002200146550388022, -0.00294899230725225, 0.005101451267511783, 0, 8.855580750657517e-06, -0.00264471435912242, 0, 0, 0, 0, 0, 0, 0, 0, 0.00568663146413271, 0, 0, -0.003104344851987923, 0.006163289833152753, 0, 0.003804409315433221, 0.006820555324621079,
        0, 0.001661377974537205, 0, 0, 0, 0, 0, 0, -0.003544900851769174, 0.008438080162593188, 0, 0, 0.007799043198471342, -0.001732382182792099, 0, 0, 0, 0, 0, 0, 0, 0, 0, 0, 0.002631836283008458, -0.001534667898440035, 0, -0.00236061535403364, -0.002373439546779283, 0.001450907304703582, 0, 0, 0, -0.005351968350361264, 0, 0, -0.002589875474461535, -0.0007886316539393865, 0, 0, 0.005039418912190383, 0.008407271741339898, 0.003781461122542087, -0.0001966735900592485, 0, 0.006406659058517084, 0, 0, 0.003702294357389718, 0.003730319765666778, 0, 0, 0.004108669270619165, -0.002806311876736002, 0, 0.005441120128554242, 0.005731066646985204, 0.006301024908727735, 0, -0.004054374525102587, 0.0005352016007112616, -0.004788344899246871, 0, 0,
        0.003753100164756939, 0, 0.003412253282199398, -0.001712691573171275, 0, 0, 0.006594236668072482, -0.002007355311741664, 0.004287869994623393, 0.003785419186295386, 0.006049463700618078, 0.00558462695689594, 0.0001272739179176325, 0.003845473374458867, -0.0005166996363745206, -0.003787112632809096,
        0.001637128945406372, -0.002401409453378716, 0.005717586475998335, 0.003020816660526511, 0, 0, 0, -0.003471846861751527, 0.0007389786951007836, 0.004147871970473781, 0.003303978922322903, 0.005657239812175948, 0, 0, 0, 0.003724951914150424,
        -0.002349556750462395, 0.01057925541164643, 0, 0, 0.005624199459972281, 0.003300496096693471, 0, 0.00597760759186762, -0.001989108642705241, 0.000231115328058484, 0, 0.003889432708039397, 0.00153503408173749, 0.002945718139191247, 0, 0.003785523285711862,
        0, 0, 0, 0, 0.003773313847343837, 0, 0.004481700757141167, 0.0009778512038406397, 0, 0, -0.003582155679276341, 0, -0.002177112421214653, 0, 0.005202930352916066, -0.0008212515383882692,
        0, 0.003259648588737842, 0, 0, 0, 0, 0, 0, 0, 0, 0, 0, 0, 0, 0, 0, 0, 0.00374501399412131, 0, 0, 0, 0, 0, 0, 0, 0, 0, 0, 0, 0, 0, 0, -0.002549305284840572, 0.004838716663840605, 0.005707925700271031, 0.003634996127625593, 0, 0, 0, 0, 0, 0.005513340519027268, 0, -0.002300861750253386, 0, 0, 0, 0, 0.005108901660432949, 0.00185963730590089, -0.0005343201535399185, 0.007687601767008582, 0, 0.001031295345238448, 0, 0.003605418221172003, 0.00371810988492896, 0.005880902558090734, 0.003833902790939147, -0.003766065446574074, 0, 0, 0, 0.003821239986606457,
        -0.0007098791854613185, 0.001120107874605077, 0, 0, 0.0007870479752426639, 0.001629796356817913, 0, 0, 0.006479165933531527, 0.007998124214848577, 0, 0.007730415226600138, -0.002284062313723482, 0.002513608536619839, 0, 0.006086448947686924, 0, 0, 0, 0, 0, 0, 0, 0.004061315412987637, 0, 0, 0, 0, -0.00227200071670438, 0.001570222586927286, 0, 0.003641226191275504, 0, 0, 0, 0, 0, -0.001730230004888252, 0, 0, 0, 0.004864524057628728, 0, 0.003702153489005919, 0.004942870675221182, -0.002440901659684953, 0, -0.002015781165937967, 0, 0, 0, 0, 0, 0, 0, 0, -0.003360889256248716, 0, 0, 0, 0, 0, 0, 0,
        0, 0, 0.00101058494369671, 0.003611473437350396, 0, 0, 0, 0.002589333313395752, 0, 0, 0.001296203560678788, 0.001240385068417956, 0, 0, 0, 0.003635270929950992, 0, 0, 0.006454627682574526, 0.003074520459575137, 0, 0.0002867573554408472, 0, 0.005004377929917245, 0, 0, -0.00347852820043466, 0, 0, 0, 0, 0.001254627948560481, 0, 0, -0.001892299613940244, 0, 0, 0, 0, -0.000574709674143404, 0, 0, 0.003589589337468478, -0.002136340195439609, 0, 0, 0, 0.005244540697519176, 0, 0, 0.005632408543327044, 0, 0, 0, 0, -0.0005538225145710916, 0, 0, 0, 0, 0, 0, 0, 0.006877688693345106,
        0, 0, 0, 0, 0, 0, 0, 0, 0, 0, 0, 0, 0, 0, 0, 0, 0, 0, 0, 0, 0, 0, 0, 0, 0, -0.003770543317540486, 0, 0, 0.003660753259469563, 0, 0, 0, 0, 0, 0, 0, 0, 0, 0, 0, 0.003509198016337379, 0.002939809500310258, -0.0003627595377422068, 0.002676017348210902, 0, 0, 0.00102972575322724, 0.007024914953673627, 0.003502716214644395, -0.001587526239124011, -0.002254244949887304, 0, 0, 0, 0.003709399487624707, 0, 0.001049335416875001, 0.004015022140850714, 0.005419331885038738, 0.005779109927654962, -0.002780968047231298, 0, 2.247492390912052e-05, -0.0002367366816935441,
        0.002917760929550755, 0, -0.003971941917859331, -0.001711324086302185, 0.003181247289290628, 0, 0.01011052200815022, 0.005824400998632947, 0.0004578062820816234, 0, -0.002547344059708352, 0.003541044063687075, 0.004539955917884873, 0.005360043114962101, 0.00359041441875091, -0.0002941826718478663, 0, 0, 0, 0, 0.0003024563124171193, 0, 0.001498295905474858, -0.004117677897421018, 0.00295092733080007, 0, 0.0002995965534995004, 0.004096167820855499, -0.004631940584280013, -0.002486662583244771, 0.006684096917530639, 0.000895680221780285,
        -0.001261735219934973, 0.005876014027749205, 0.003107503046989933, -0.001785019120462821, 0.0007843609337464015, 0.003335458658894004, 0, 0, -0.002287468838902017, 0, 0, 0, 0, 0, 0, 0, 0, 0.0009370463979204738, 0, 0, 0, 0, 0, -0.002007914919730353, 0, 0, 0, 0, 0, 0, 0, 0, 0.0001515033055370939, 0.003867247605813693, 0, -0.00232642998620963, 0.008100844696166046, 0.006637645751836571, 0, 0, 0, 0, 0, 0, 0, -0.002299533293592095, 0, 0, 0, 0.006335620703075125, 0, 0, -0.004180944229899056, 0.005650801697287808, 0, 0, 0.003947732416845969, 0, 0, 0, 0.003443162094549388, -0.00284935147993776, 0, 0,
        0, 0, 0, 0, 0, 0, 0, 0, 0, 0, 0.00357164139998949, 0, 0, 0, 0, 0, 0.004853521588146135, 0, -9.672308024225968e-05, 0, 0.00298662171428953, 0, 0.003500814777732864, 0, 0, 0, 0.004026734969664958, 0, 0, 0, -0.001379348003368426, 0, 0, 0, 0, 0, 0, 0, 0, 0, 0, 0, 0, 0, 0, 0, 0, 0, -0.0007643478076565353, 0.00359622573002507, 0.007014336667829736, -0.002211352948189942, -0.0003688762762368686, 0, 0.007897353730887707, 0, -0.002255558844171685, 0, 0.003902115762058522, 0, 0, 0, -0.005194980692946547, 0,
        0, 0, 0, 0, 0.003238181927380014, 0.0007921129650941253, 0, 0.002888073213637024, 0, -0.001765898868929297, 0, 0, 0, -0.004745509484249959, 0.003039973537947067, 0, -0.0009846743095848624, 0, 0, 0, 0, -0.004308920702279427, 0, 0, -0.003275381649388831, 0.003298995031501595, 0, 0, 0.001054911236273957, 0.002448260709223535, -0.00365736508929702, 0, 0, 0.006058844736048893, 0, 0, 0, 0.002499032879812154, -0.00166727030364222, -0.003610408003081607, 0.003538664658501827, 0, 0, -0.001933552166430381, 0.004849220958925567, 0.005015380783965656, 0, 0.001623465773301893, -0.0006904978845892332, -0.003581063338111411, 0, 0, 0.006401838404629555, 0.006229219766426134, -0.002299578690555015, 0.004624507945242418, -0.004513994936530864, 0.005678504581934023, 0, 0.003425317796479304, 0.004852733604814973, 0.00338156717642384, 0.003466183526946073, 0.006627423741599642,
        -0.002066731540890901, 0, 0, 0, 0.004672988141665712, 0, 0.001044179177722164, 0, 0, 0, 0, 0, 0.008000457052681454, 0, 0.006425183660199918, 0, 0, 0, 0, 0, 0.00184299516406992, 0, 0.006557925012106689, 0, 0, 0, 0, 0, 0.002816047897664481, 0, 0.005235579708716703, -0.003361105901014111, 0.00327425256931837, 0, 0, 0, 0, 0, 0, 0, 0, 0, 0, 0, 0, 0, -0.00411186286311553, 0, 0, 0, 0, 0, 0.00207248538700099, 0.003345932234732102, 0.004279280393431646, 0, 0, 0, 0, 0, -0.001711905636817573, 0, 0.0009821930050217249, -0.001654765776644402,
        0.003702733985396854, 0, 0.002423111606532805, 0.003990328183441865, 0, 0, 0.003366639344424315, 0.00489118576311301, 0.003543546408065396, 0.003441830466857428, 0, 0, 0, 0, -0.0005781579594671025, 0, 0, 0, -0.004369518691888308, 0.003090955707404598, 0.002811355490300209, 0, 0.006175970683886315, 0.005854114764937151, 0, 0, 0.0003777998615621055, 0, 0, 0, 0, 0, 0.001299561197589012, -0.002279976307416803, 0.002480001009343214, 0.001746565920445955, 0, 0, -0.0002709708648072479, 0, 0, 0, 0, 0, 0, 0, 0, 0, 0, 0, 0.000270054201917678, 0, 0, 0, 0.005284528095133637, 0, 0, 0, 0, 0, 0, 0, 0, 0,
        0.003347510390808368, 0, 0.0004521217868461972, 0, 0, 0, -0.001123994886616748, 0.002950771576312723, 0.003470389852724297, 0, -0.002309152093253988, 0, -0.004557973743570606, 0, 0.002791978434008649, 0, 0, 0, 0.003079373988387993, 0, 0, 0, 0.003481113805589489, 0, 0, 0, 0.003160209337000678, 0, 0, 0, 0.003052905590311246, 0, -0.004257459777824033, 0, 0.001963179319359729, 0.003287267102430039, -0.001393507671527619, 0, 0.007445118098213833, 0.0003206495981278835, 0.005604629729288121, -0.001769067674743136, 0.000844067450444295, 0, 0.00354260139204221, 0, -0.00343964363392299, -0.002714804496777477, 0, 0, 0.002942739505911831, 0, 0, 0, 0.006305885734028904, -0.002001872497540758, 0, 0, 0, 0, 0.003832457520667793, 0, 0.003117058262992486, 0,
        0.0006355438791376338, 0, 0.006019426519987176, 0, 0.00329930438026539, 0, -0.001457434078847773, 0, 0, 0, 0, 0, 0, 0, 0, 0.002941779765277988, 0.007020048398046813, 0, 0.0026936024579459, 0, 0, 0, -0.0008310968831531736, 0, 0, 0.003106806465724863, -0.002248791039584459, -0.002766166888561262, 0, 0, 0, 0, 0, 0, 0, 0, 0, 0, 0, 0, 0, 0, 0, 0, 0, 0, 0, 0, 0.0003912301003304511, 0, 0.0006416021659825467, 0, -0.002310170627441499, 0, 0.001523619629392574, 0, 0, 0.003970781430150347, 0.002852699680217651, -0.003220540690478814, 0, 0.003360178354444461, 0, 0.003236859709181008,
        0, -0.002082619141594323, 0, -0.00254335938331254, 0, 0, 0, 0, 0, 0, 0, 0, 0.003456364847123429, 0, 0, 0, 0, 0, 0, 0, 0, 0, 0, 0, 0, 0, 0, 0, 0, 0, 0, 0, 0, -0.004300426631605824, 0.003788455749606074, -0.0006382435933040651, -0.00177600168546217, 0, 0, 0.005475941437488047, 0.006203899991017781, 0.002320237908444089, -0.0001229097728790097, 0.008643170948658284, 0, 0.005073250630869565, -0.002660366926503671, 0.002236886044781994, 0, 0.005112522328038053, 0, 0.0001903327126142588, 0, 0, 0, 0, 0.006315881902429537, 0.004559807554100048, 0.002731709319405129, -0.004263738885911082, 0.002831304433094239, -0.005297601931769084, 0, 0.005482708011774853,
        0, -0.004415609303968252, 0, 0.001021832724282199, -0.003360411940680976, 0.002930829188194547, 0.003302880020970403, 0.00485045561506444, 0.005379629525628877, 0.004947780847301709, -0.003688355175193624, -0.0001310624435991984, 0.003224343888464983, 0.002888598742571952, 0.003247850764998408, 0.006062231631794265,
        0, 0, 0.001095115215234178, 0, 0.0009846022762796374, -0.001559366853235434, 0, 0.0004534006178309261, 0, 0, 0, -0.002740219496945105, 0, 0, 0, 0, -0.004785554491185271, 0.006795199974207834, -0.002855916525861857, 0.008699381594662317, -0.001847832764341263, 0.000232198581194006, 0.006999627035773753, 0.002062462120260787, 0, 0, 0.003331627580186989, -0.001969581635639346, 0, 0, 0.001912981943337392, -0.000633864215469645, 0, 0, 0, 0, 0, 0, 0, 0, 0, 0, 0, 0, 0, 0, 0, 0, 0.002861089411743796, 0.002845322515096359, -0.00144775003346507, 0.005867295888956013, 0.001268252701136053, 0.004447034143281067, 0.002764602914098471, 0.006769350985907265, 0, 0, 0, 0, 0, -0.002078257515673501, -0.003154185542558964, 0,
        0, 0, 0, 0, 0, 0, 0, 0, -0.005121622452703128, 0, 0, 0, 0, 0, 0, 0, -0.002219690019431148, 0, 0, 0, 0, 0, 0, 0, 0.006238570644677575, 0, 0.00333750268618806, 0, 0, 0.003796746050808532, 0, 0, 0.003404122708213561, 0, 0, 0, 0.003290834194014464, 0, 0, 0, -0.001771210599859819, 0, 0, 0, 0.002817929763508822, 0, 0, 0, 0.001762991087303608, 0.000653221051686152, 0, -0.001655060196176585, 0.004680171573800572, 0, 0.003306640373894095, 0, 0.003191246390340681, -0.003361013955726401, -1.025848174624392e-05, 0, 0.002559522724758386, 0, 0.002743292965177537, 0.003133589713905233,
        0.0008639939483271977, 0, 0, 0, 0, 0, 0, 0, 0.002796795290754898, 0, 0, 0, 0, 0.003320219387900685, 0, 0, -0.0001360078168752373, 0, 0, 0, 0.002768465388499508, 0, 0, 0, 0.003727534619468045, 0.006119524997967881, -0.0008082276328919953, 0, 0.003445296889422478, 0.001186029827422294, -0.002081867004660959, 0, 0, 0, 0, 0, 0, 0, 0, 0, 0, 0, 0, 0, 0, 0, 0, 0, 0, 0, 0, 0, 0, 0, 0, 0, 0, -0.002561479777130432, 0, 0, 0, -0.001332667899592405, 0, 0,
        0, 0, 0, 0, -0.002257954773077574, 0.0006678771608107753, 0, 0, 0, 0, 0, 0, 0, 0, 0, 0, 0, 0, 0, 0, 0, 0, 0, 0, 0, 0, 0, 0, 0, 0, 0, 0, 0.004203093793521428, -0.004419922130064916, -0.001336212037950803, -0.001792093413155632, 0.002909533724926604, 0.003461747808789363, 0.0024089486125672, 0, 0, 0, -0.001995988715582594, 0, 0.004183485495705843, -0.003648144493575431, -0.001896542136528151, 0, -0.0004494903371156759, 0, 0.002392475846889521, 0.002546742312404559, 0.005542992149624127, 0.004636426492487429, -0.001341753366893571, 0.001080754806430471, 0, 0.003742430729970842, 0, 0.003256000845551102, -0.001125164537421403, 0.00323819642908989, 0, 0.005039909934232697,
        0, 0, 0, 0, 0, 0, 0, 0, 0, 0, 0, 0, 0, 0, 0, 0, 0, 0, 0, 0, 0, 0, 0, 0, 0.004716535912503777, 0, 0, 0, 0, 0, 0, 0, 0.003268035864930813, 0, 0, 0, 0, 0.003150636918939701, 0, 0, 0.001261064727610864, 0, 0, 0, 0, 0.004393823514025338, 0, 0.003231580839755298, -0.005060308761669589, 0, -0.001777191647821024, 0, 0, 0.005371972388811892, 0, 0, 0.003860460122674473, 0, -0.003625451330851266, 0, 0.003644202541294452, 0.001014918186385836, 0, 0,
        0, 0, 0, 0, 0, 0, 0, 0, 0, 0, 0, 0, 0, 0, 0, -0.002731223975362913, 0, 0, 0, 0, 0, 0, 0, 0, 0, 0, 0, 0, 0, 0, 0, 0, 0, -0.001966057501427128, 0, 0.003329747828251398, 0, 0.002238320042223518, 0.003360289745110399, 0.004514536107647529, 0, -0.0004361682739491015, 0, 0.001148205077787148, 0, 0.006061620041092339, -0.0001929832433925875, 0.001910028509735339, 0, 0, 0, 0, 0, 0, 0, 0, 0, 0, 0, 0, 0, -0.001632857352860157, 0, 0.006605290169612267,
        0, 0, 0, 0, 0, 0, 0, 0.00245691784446654, -0.002262957212388588, 0.003566620971331998, -0.001981935753463967, 0.00194766801989265, 0, 0, 0.005683252030203178, 0.00350174371318799, 0, 0, 0, 0, 0, 0, 0, 0, 0, 0, 0, 0.00249575254936075, 0, 0, 0, -0.0001493081083967452, 0, 0, 0, 0, 0, 0, 0, 0, 0, 0, 0, -0.00204332418157743, 0, 0, 0, -0.002296669557390727, 0, 0, 0, 0, 0, 0, 0, 0, 0, 0, 0, 0, 0, 0, 0, 0,
        -0.002680737121108614, 0.006896298570834312, -0.003157356287183707, 0.004399468609014237, 0.002725049842608563, 0.005798663114160559, 0, 0, 0, -0.002356589255152322, 0, 0, 0, 0, 0, 0, 0.0002019439220851375, 0.00818560258801305, 0.00749523814140197, -0.002134895211958529, -0.004628946846054722, -0.0001842172936192174, 0.006398808931683606, 0.002216956259420071, -0.001444929118768232, 0.001456042887394157, -0.001646874000249319, 0, 0, 0, 0, -0.002027999250558138, 0, 0.004786674878546697, 0, 0, 0, 0, 0, 0, 0, 0, 0, 0, 0, 0, 0, 0, 0.002962475395222117, 0, 0.003342266620619493, 0, 0, -0.00198276063950222, 0, 0, -0.00183558793731421, 0, 0, 0, 0, 0, 0, 0,
        0.0008339978344275479, 0, 0.001590770207194287, 0, 0, 0, 0, 0, 0.006418621516685776, 0, 0.004195435707993464, -0.002280959115477091, 0, 0, -0.002743162607315685, 0, -0.005231278589185649, 0, -0.0001109840836723209, 0, 0, 0, 0, 0, 0.004320846673477142, -0.002012789256518922, 0.005155970686791169, 0, 0, 0, 0, 0, 0, 0, 0, 0, 0, 0, 0, 0, 0, 0, 0, 0, 0, 0, 0, 0, -0.002490455654800912, 0.002673427641555474, -0.001759916698718466, 0, 0, 0, 0, 0, 0.002141645447770823, -0.001742287409079437, 0.003416124938505158, 0, 0, 0, 0.002979095723478307, 0,
        -0.00228602234837672, 0, 0.002487464535344308, -0.002396929460207486, 0, 0, 0, 0, 0, 0, 0, 0, 0, 0, 0, 0, 0.0005475534181041989, 0, 0.002847518927307482, 0.002194606252477514, 0.003223779013877277, 0, 0.004777454451007059, 0, 0, 0, -0.001665988212630164, 0, 0, 0, -0.002441691346015701, 0, 0, 0, 0, 0, 0, 0, 0, 0, 0, 0, 0.003040531531284325, 0, 0, 0, 0, 0, 0, 0, 0, 0, 0, 0, 0, 0, 0, 0, -0.0006014210882620819, 0, 0, 0, 0, 0,
        0, 0, 0, 0, 0, 0, 0, 0, 0, 0, 0, 0, 0, 0, -0.002239739072582331, 0, 0, 0, 0, 0.003199055540711138, 0, 0, 0.004748246014031274, 0, 0.003119600420532605, 0, 0.003008136619482644, -0.002743945279698129, 0, 0, 0.001573522798445263, -0.001622331900639311, 0, -0.001733326904347406, 0, 0.00310496068270455, 0, 0, 0, 0.003135664352978628, 0, 0, 0.001172422368044868, -0.0057396469395282, 0.004694912178727056, 0, 0.005346891017995926, -0.002903632202308124, 0, 0, 0.000808436324897674, -0.00203236715476169, -0.003072055159798339, 0, 0.0004205246902697339, -0.002423378661329904, -0.001724613379508143, 0.00318032237247673, 0.0003133312632288822, -0.002970304310931444, -0.004885060914726833, 0, 0.004039335281277022, 0.005250823635800985,
        0, 0, 0, 0, 0, 0, 0, 0, 0, 0, 0, 0, 0, 0, 0, 0, 0, 0, 0, 0, 0, 0.003096203417901575, 0, 0, 0, 0, 0, 0, 0, 0, 0, 0, 0.003062532231758908, 0.002758320887621932, 0.003697069658866261, 0, 0, -0.002422032008650255, 0, -0.002723365690560383, 0, 0.003546149956150833, 0, 0, 0, 0, 0, 0, 0.0006936629699728295, 0.00542516666368952, 0.001519543618146192, 0.006440227029374857, 0, 0.004995405724904908, 0, -0.001571015468702408, -0.005114725136915144, 0, -0.004285692989596044, 0.002867979451058963, 0, 0.002431101258530338, 0, 0,
        0, 0, 0, 0, 0, 0, 0, 0, 0, 0, 0, 0, 0, 0, 0, 0, 0, 0, 0.002732976176585528, 0, 0, 0, 0, 0, 0, 0, 0, 0, 0, 0, 0, 0, 0.004742962298175077, 0, 0.003764173198112347, -0.004657204460760744, 0, 0, 0, 0, -0.0003856139593349297, 0.006044636166864964, 0.004684982253607645, 0, 0, 0, 0, -0.002403866768991403, 0.003039221059924196, 0.002975041792715595, -0.001630999711015051, 0.0007595940991860958, 0, 0, 0, 0.000772096703314976, 0.00083842989305072, 0.002902657427154197, 0.00480854109735587, -0.006832608159877192, 0, 0.002975421163783085, 0, 0.005757959206119542,
        -0.002036091158689978, 0, 0.0006843374353330506, 0.00417466967204437, 0, 0, -0.0002665340339498607, 0.002214415185698833, 0, 0, 0.004257681270546704, 0.002991060764966461, 0, 0, -0.002083320668287816, -0.001797316136633082, 0, 0, 0, 0.002699271663027399, 0, 0, 0.003978992598566734, 0.002702357426420425, 0, 0, 0, 0, 0, 0, -0.002000880484972825, -0.002426341036088099,
        -0.001802447718714294, 0, 0, 0, 0, 0, 0, 0, 0, 0, 0.0008930188085416999, -0.001674866548277012, 0, 0, 0, 0, 0.005074032867197983, 0, -0.0006496653547105515, 0.002433196792653431, -0.0002790952885255336, 0, 0, 0, 0, 0, -0.003437357409897713, -0.002157486835051364, 0, 0, 0, 0, 0.003005462098705519, -0.001403456963847534, 0.0003130223166151924, -0.002714020752834622, 0, 0, 0, 0, 0, 0, 0.0001334457267361091, 0, 0, 0, 0, 0, 0.0022234049969859, -0.003200911548048185, 0.006491650419794837, 0, 0, 0, 0, 0, 0, 0, 0.0002806807488667397, 0, 0, 0, 0, 0,
        0, 0, 0, 0, 0, 0, 0, 0, 0, 0, 0, 0, 0, 0, 0, -0.003103359075792033, 0, 0, 0, 0, 0, 0, 0.002758748651743027, 0, 0, -0.002022925580910578, 0, -5.534921076506979e-05, 0, 0, 0, 0.002690451281449374, 0, 0, 0, 0, 0, 0, 0, 0, 0, 0, 0, 0.003453314870964489, 0, 0, 0, 0.005445146044169446, 0, 0, 0, 0, 0, 0, 0, -0.005290324025344289, 0, 0, 0, -0.0003669534833331167, 0, 0, -0.002406050264107031, 0.002832154153939155,
        0, 0, 0, 0, 0, 0, 0, 0, 0, 0.003080812433487252, 0, 0.00220646614185503, 0, 0, 0, 0, 0, 0, 0, 0, 0, 0, 0, 0, 0, -0.003426912871046158, 0, -0.002417212026073981, 0, 0, 0, 0, 0, 0.003005113608986421, 0, 0.002048932376906555, 0, 0, 0, 0, 0.003142178979792765, -0.001883644408668556, 0.001532769894499063, 0.003350413280850535, 0, 0.00295128527128947, 0, 0.004280719940419028, 0, 0, 0, -0.002236314632098314, 0, 0, 0, 0.002907753435933349, 0, 0.004730766677709464, -0.003903008875432225, 0.003724231381848185, 0, -0.00285336930205797, 0.004535241088599294, -0.006791523242064738,
        0, 0, 0.00284612692066319, 0.002523836346754919, 0.003118612637971068, 0.001468271725191667, 0.00286080051439227, 0.002758839518055393, 0, 0, 0, -0.002406095775565694, 0, 0, 0.002999674743720635, -0.004058990850992106,
        0, 0.002839541589015344, 0, 0, 0, 0, 0, 0, -0.002044993431009822, 0, 0, 0, 0, 0, 0, 0, -0.002596747736153386, 0.001065428214032971, -0.003189766574171898, -0.001797726573357794, 0, 0, 0, 0, 0.003559074332694587, 0.004979469018028268, -0.001003917180123757, -0.002476462387274607, -0.002357759760275536, 0, 0, -0.001899262540882739, 0, 0, 0, 0, 0, 0, 0, 0, 0, 0, 0, 0, 0, 0, 0, 0, 0, 0.003967929416016119, 0, 0, 0, 0, 0, 0, 0, 0.006076464920573869, 0, 0.004095534351502763, 0, 0, 0, 0,
        0, 0, 0, 0, 0, 0, 0, 0, -0.003638194493860014, 0.003768800030068802, 5.690433509607738e-05, 0.002405532261548392, 0, 0.001555281027862246, 0, 0.00395799916278119, 0, 0, 0, 0, 0, 0, 0, 0, 0.004219756240525454, 0.006876136474941468, 0, -0.003724857239498708, 0, -0.001269047898213863, 0, 0, 0, 0, 0, 0, 0, 0, 0, 0, 0, -0.001711372059273669, 0, 0.0007070403351345845, 0, -0.00131421987116534, 0, 0, 0, -0.001538953909484483, 0, 0, 0, 0, 0, 0, -0.003921120662342278, 0.001567295687762186, 0.005641010518397206, -0.002939551831895244, 0, -0.001963517957137633, 0, 0.002601487060659179,
        0, 0, -0.0008942861191872469, 0, 0, 0, 0, 0, 0, 0, 0, 0, 0, 0, 0, 0, 0.00224326951418218, 0, 0.0009284045913027978, -0.002758765609323684, 0, 0, -0.001961278995897436, 0, 0, 0, 0, 0, 0, 0, 0, 0, -0.001952198506864847, 0, 0.003388382777604678, -0.003248006071911605, 0, 0, -0.002599939953117915, 0, 0, 0, 0.00221377531911207, 0.002540814428253158, 0, 0.002733483438836133, -0.001962741760488815, 0, 0.003376228095855582, 0, 0.006487589055474738, -0.004634440105422973, 0, 0, -0.000641383099287943, 0, -0.002313423731903048, -0.001645766006081198, 0.003441393766342403, -0.001527411755421336, 0, 0, 0.003266863330523348, 0,
        0, 0, 0, 0, 0, 0, 0, 0, 0, 0, 0, 0, 0.002360998258048892, 0, 0, 0.00280497491024692, 0, 0, 0, 0, 0, 0, 0, 0, 0, 0, 0, 0, 0, 0, 0, 0, 0, -0.002043280491739565, 0, 0, 0, 0.00301312745070418, 0, 0, 0, 0, -0.005099516618996967, 0.005789341666328104, 0.002712982313503098, -0.0040315553438255, 0.004628865349241889, 0.0007278824374829862, 0, 0, 0, 0, 0, 0, 0, 0, 0, 0, 0, 0.002061616313406562, 0, 0, 0, 0.003392148801231264,
        0, 0, -0.002230162332118031, 0, 0, 0.002343290771509318, 0.002990528995329014, 0, -0.00202795588839405, 0, -0.003751862261832841, -0.003877030975531237, 0, 0, -0.002140024793193083, 0.005240519270384905, 0, 0, 0, 0, 0, 0, 0, 0, 0, 0, -0.001603186096908633, 0, 0, 0, 0, 0.002183327277525173, 0, 0, -0.001690238244544134, 0, 0, -0.002375344342036884, 0, 0.0008982926956088864, 0.004779002713695293, 0.00273264370024464, 0.006270691690127735, -0.001489695543623351, -0.002478602735585866, 0.002046154191401619, 0.00184945634638656, 0.002959986837852313, 0, 0, 0, 0, 0, 0, 0, 0, 0, 0, 0, -0.002150785788514271, 0, 0, 0.002627541779494727, 0,
        0.00450023560719205, 0, -0.0001293026539405629, 0, 0, 0, 0.002683884583173866, 0, -0.001176528733335102, -0.0001281451847196761, 0.003915410145246633, 0, -0.002952246142051567, 0, -0.001056577348105687, 0, 0, 0, -0.001192479246888151, 0, 0, 0, 0.002579945025328511, 0, 0, 0, 0.002900726128066991, 0.0007717276895731635, 0, 0, 0.001679876701542396, 0.00274311562456627, 0, 0, 0, 0, 0, 0, 0, 0, 0, 0, 0.002330140402200243, 0, 0, 0, 0, 0, 0, 0, 0, 0, 0, 0, 0, 0, 0, 0, -0.001813424563074132, 0, 0, 0, 0, 0,
        0, 0, 0, 0, 0, 0, 0.001830926626439343, 0, 0, 0, 0, 0, 0, 0, 0, 0, 0, 0, 0, 0, 0, 0, 0.002055233287768039, 0, 0, 0, 0, 0, 0, 0, 0, 0, 0.002150434664762372, 0, -0.004054759751527806, -0.002672295379675484, 0.0001544738113167268, -0.004400495591582026, 0.005316750892561049, -0.0008364438136709633, 0, 0, 0, 0, -0.002964181258141252, -0.002545242561869952, -0.002285452577893558, -0.001545592695736989, -0.002434982715042179, 0, 0, 0, 0.005815006458047645, 0, 0.004753264754486832, 0.002489829205040278, 0, 0, 0, 0, 0.0032428719048858, 0, -0.001086403393799126, 0,
        0, 0, 0, 0, 0, 0.002663904716233757, 0, 0, 0, 0, 0, -0.003372625538709568, 0, -0.002248736482079122, 0.003225849181585911, 0.00307608844576993, 0, 0, 0, 0, 0, 0, 0, 0, 0, 0, 0, 0, 0, 0.005124131681537933, 0, -0.001695843543681667, 0, 0, 0, 0, 0, -0.001057198107676436, 0, 0, 0, 0.001929537757662031, 0, 0, -0.002814617516624784, 0.003724188810466645, 0, -6.530210397072201e-05, 0, 0, 0, 0, 0, 0, 0, 0, 0, 0.002840640955829722, 0, 0, 0, 0.003853915823773541, 0, -0.005348060456966544
    };
} CatboostModelStatic;

/* Model applicator */
double ApplyCatboostModel(
    const std::vector<float>& features
) {
    const struct CatboostModel& model = CatboostModelStatic;

    /* Binarise features */
    std::vector<unsigned char> binaryFeatures(model.BinaryFeatureCount);
    unsigned int binFeatureIndex = 0;
    for (unsigned int i = 0; i < model.FloatFeatureCount; ++i) {
        for(unsigned int j = 0; j < model.BorderCounts[i]; ++j) {
            binaryFeatures[binFeatureIndex] = (unsigned char)(features[i] > model.Borders[binFeatureIndex]);
            ++binFeatureIndex;
        }
    }

    /* Extract and sum values from trees */
    double result = 0.0;
    const unsigned int* treeSplitsPtr = model.TreeSplits;
    const double* leafValuesForCurrentTreePtr = model.LeafValues;
    for (unsigned int treeId = 0; treeId < model.TreeCount; ++treeId) {
        const unsigned int currentTreeDepth = model.TreeDepth[treeId];
        unsigned int index = 0;
        for (unsigned int depth = 0; depth < currentTreeDepth; ++depth) {
            index |= (binaryFeatures[treeSplitsPtr[depth]] << depth);
        }
        result += leafValuesForCurrentTreePtr[index];
        treeSplitsPtr += currentTreeDepth;
        leafValuesForCurrentTreePtr += (1 << currentTreeDepth);
    }
    return result;
}
