<?xml version="1.0" encoding="UTF-8"?>
<PMML version="4.3" xmlns="http://www.dmg.org/PMML-4_3" xmlns:xsi="http://www.w3.org/2001/XMLSchema-instance">
<Header copyright="(c) catboost team" description="CatBoostModel_for_regression" modelVersion="1">
<Application name="CatBoost" version="Arc info:
    Branch: catboost
    Commit: e8d905c6b96b75312a6f632481a18fbd0c003595
    Author: jakovenko-dm
    Summary: Add recordCount attribute to PMML export

Other info:
    Build by: jakovenko-dm
    Top src dir: /home/jakovenko-dm/arc/arcadia
    Top build dir: /home/jakovenko-dm/.ya/build
    Hostname: jakovenko-dm-nix
    Host information: 
        Linux jakovenko-dm-nix 5.3.0-40-generic #32~18.04.1-Ubuntu SMP Mon Feb 3 14:05:59 UTC 2020 x86_64

    "/>
<Timestamp>2020-03-21T15:15:10Z</Timestamp>
</Header>
<DataDictionary>
<DataField name="feature_3" optype="continuous" dataType="float"/>
<DataField name="feature_5" optype="continuous" dataType="float"/>
<DataField name="feature_7" optype="continuous" dataType="float"/>
<DataField name="feature_13" optype="continuous" dataType="float"/>
<DataField name="feature_14" optype="continuous" dataType="float"/>
<DataField name="feature_15" optype="continuous" dataType="float"/>
<DataField name="feature_0" optype="categorical" dataType="string"/>
<DataField name="feature_0_mapped" optype="categorical" dataType="integer"/>
<DataField name="feature_1" optype="categorical" dataType="string"/>
<DataField name="feature_1_mapped" optype="categorical" dataType="integer"/>
<DataField name="feature_2" optype="categorical" dataType="string"/>
<DataField name="feature_2_mapped" optype="categorical" dataType="integer"/>
<DataField name="feature_4" optype="categorical" dataType="string"/>
<DataField name="feature_4_mapped" optype="categorical" dataType="integer"/>
<DataField name="feature_6" optype="categorical" dataType="string"/>
<DataField name="feature_6_mapped" optype="categorical" dataType="integer"/>
<DataField name="feature_8" optype="categorical" dataType="string"/>
<DataField name="feature_8_mapped" optype="categorical" dataType="integer"/>
<DataField name="feature_9" optype="categorical" dataType="string"/>
<DataField name="feature_9_mapped" optype="categorical" dataType="integer"/>
<DataField name="feature_10" optype="categorical" dataType="string"/>
<DataField name="feature_10_mapped" optype="categorical" dataType="integer"/>
<DataField name="feature_11" optype="categorical" dataType="string"/>
<DataField name="feature_11_mapped" optype="categorical" dataType="integer"/>
<DataField name="feature_12" optype="categorical" dataType="string"/>
<DataField name="feature_12_mapped" optype="categorical" dataType="integer"/>
<DataField name="feature_16" optype="categorical" dataType="string"/>
<DataField name="feature_16_mapped" optype="categorical" dataType="integer"/>
<DataField name="prediction" optype="continuous" dataType="double"/>
</DataDictionary>
<MiningModel functionName="regression">
<MiningSchema>
<MiningField name="feature_3" usageType="active"/>
<MiningField name="feature_5" usageType="active"/>
<MiningField name="feature_7" usageType="active"/>
<MiningField name="feature_13" usageType="active"/>
<MiningField name="feature_14" usageType="active"/>
<MiningField name="feature_15" usageType="active"/>
<MiningField name="feature_0" usageType="active"/>
<MiningField name="feature_1" usageType="active"/>
<MiningField name="feature_2" usageType="active"/>
<MiningField name="feature_4" usageType="active"/>
<MiningField name="feature_6" usageType="active"/>
<MiningField name="feature_8" usageType="active"/>
<MiningField name="feature_9" usageType="active"/>
<MiningField name="feature_10" usageType="active"/>
<MiningField name="feature_11" usageType="active"/>
<MiningField name="feature_12" usageType="active"/>
<MiningField name="feature_16" usageType="active"/>
<MiningField name="prediction" usageType="target"/>
</MiningSchema>
<Output>
<OutputField name="prediction" optype="continuous" dataType="double"/>
</Output>
<LocalTransformations>
<DerivedField name="feature_4_mapped" optype="categorical" dataType="integer">
<MapValues mapMissingTo="2" defaultValue="2" outputColumn="value" dataType="integer">
<FieldColumnPair field="feature_4" column="key"/>
<InlineTable>
<row>
<key>Self-emp-inc</key>
<value>0</value>
</row>
<row>
<key>Local-gov</key>
<value>1</value>
</row>
</InlineTable>
</MapValues>
</DerivedField>
<DerivedField name="feature_6_mapped" optype="categorical" dataType="integer">
<MapValues mapMissingTo="1" defaultValue="1" outputColumn="value" dataType="integer">
<FieldColumnPair field="feature_6" column="key"/>
<InlineTable>
<row>
<key>Prof-school</key>
<value>0</value>
</row>
</InlineTable>
</MapValues>
</DerivedField>
<DerivedField name="feature_8_mapped" optype="categorical" dataType="integer">
<MapValues mapMissingTo="2" defaultValue="2" outputColumn="value" dataType="integer">
<FieldColumnPair field="feature_8" column="key"/>
<InlineTable>
<row>
<key>Married-civ-spouse</key>
<value>0</value>
</row>
<row>
<key>Married-spouse-absent</key>
<value>1</value>
</row>
</InlineTable>
</MapValues>
</DerivedField>
<DerivedField name="feature_9_mapped" optype="categorical" dataType="integer">
<MapValues mapMissingTo="1" defaultValue="1" outputColumn="value" dataType="integer">
<FieldColumnPair field="feature_9" column="key"/>
<InlineTable>
<row>
<key>Exec-managerial</key>
<value>0</value>
</row>
</InlineTable>
</MapValues>
</DerivedField>
<DerivedField name="feature_10_mapped" optype="categorical" dataType="integer">
<MapValues mapMissingTo="2" defaultValue="2" outputColumn="value" dataType="integer">
<FieldColumnPair field="feature_10" column="key"/>
<InlineTable>
<row>
<key>Husband</key>
<value>0</value>
</row>
<row>
<key>Other-relative</key>
<value>1</value>
</row>
</InlineTable>
</MapValues>
</DerivedField>
</LocalTransformations>
<Segmentation multipleModelMethod="sum">
<Segment id="0">
<True/>
<TreeModel modelName="tree_0" functionName="regression" missingValueStrategy="defaultChild" splitCharacteristic="binarySplit">
<MiningSchema>
<MiningField name="feature_3" usageType="active"/>
<MiningField name="feature_5" usageType="active"/>
<MiningField name="feature_7" usageType="active"/>
<MiningField name="feature_13" usageType="active"/>
<MiningField name="feature_14" usageType="active"/>
<MiningField name="feature_15" usageType="active"/>
<MiningField name="feature_0_mapped" usageType="active"/>
<MiningField name="feature_1_mapped" usageType="active"/>
<MiningField name="feature_2_mapped" usageType="active"/>
<MiningField name="feature_4_mapped" usageType="active"/>
<MiningField name="feature_6_mapped" usageType="active"/>
<MiningField name="feature_8_mapped" usageType="active"/>
<MiningField name="feature_9_mapped" usageType="active"/>
<MiningField name="feature_10_mapped" usageType="active"/>
<MiningField name="feature_11_mapped" usageType="active"/>
<MiningField name="feature_12_mapped" usageType="active"/>
<MiningField name="feature_16_mapped" usageType="active"/>
<MiningField name="prediction" usageType="target"/>
</MiningSchema>
<Output>
<OutputField name="prediction" optype="continuous" dataType="double"/>
</Output>
<Node id="0" recordCount="101">
<True/>
<Node id="2" recordCount="6" defaultChild="5">
<SimplePredicate field="feature_14" operator="greaterThan" value="1738"/>
<Node id="6" recordCount="0" defaultChild="13">
<SimplePredicate field="feature_3" operator="greaterThan" value="52.5"/>
<Node id="14" recordCount="0" defaultChild="29">
<SimplePredicate field="feature_4_mapped" operator="equal" value="1"/>
<Node id="30" score="0" recordCount="0">
<SimplePredicate field="feature_8_mapped" operator="equal" value="0"/>
</Node>
<Node id="29" score="0" recordCount="0">
<True/>
</Node>
</Node>
<Node id="13" recordCount="0">
<True/>
<Node id="28" score="0" recordCount="0">
<SimplePredicate field="feature_8_mapped" operator="equal" value="0"/>
</Node>
<Node id="27" score="0" recordCount="0">
<True/>
</Node>
</Node>
</Node>
<Node id="5" recordCount="6">
<True/>
<Node id="12" recordCount="0" defaultChild="25">
<SimplePredicate field="feature_4_mapped" operator="equal" value="1"/>
<Node id="26" score="0" recordCount="0">
<SimplePredicate field="feature_8_mapped" operator="equal" value="0"/>
</Node>
<Node id="25" score="0" recordCount="0">
<True/>
</Node>
</Node>
<Node id="11" recordCount="6">
<True/>
<Node id="24" score="-0.1819306947" recordCount="5">
<SimplePredicate field="feature_8_mapped" operator="equal" value="0"/>
</Node>
<Node id="23" score="0.02722772211" recordCount="1">
<True/>
</Node>
</Node>
</Node>
</Node>
<Node id="1" recordCount="95">
<True/>
<Node id="4" recordCount="23" defaultChild="9">
<SimplePredicate field="feature_3" operator="greaterThan" value="52.5"/>
<Node id="10" recordCount="2" defaultChild="21">
<SimplePredicate field="feature_4_mapped" operator="equal" value="1"/>
<Node id="22" score="0" recordCount="0">
<SimplePredicate field="feature_8_mapped" operator="equal" value="0"/>
</Node>
<Node id="21" score="0.04356435537" recordCount="2">
<True/>
</Node>
</Node>
<Node id="9" recordCount="21">
<True/>
<Node id="20" score="-0.1644271591" recordCount="11">
<SimplePredicate field="feature_8_mapped" operator="equal" value="0"/>
</Node>
<Node id="19" score="0.08377760649" recordCount="10">
<True/>
</Node>
</Node>
</Node>
<Node id="3" recordCount="72">
<True/>
<Node id="8" recordCount="7" defaultChild="17">
<SimplePredicate field="feature_4_mapped" operator="equal" value="1"/>
<Node id="18" score="-0.1955445558" recordCount="3">
<SimplePredicate field="feature_8_mapped" operator="equal" value="0"/>
</Node>
<Node id="17" score="0.06223479339" recordCount="4">
<True/>
</Node>
</Node>
<Node id="7" recordCount="65">
<True/>
<Node id="16" score="-0.05750190639" recordCount="23">
<SimplePredicate field="feature_8_mapped" operator="equal" value="0"/>
</Node>
<Node id="15" score="0.1016501625" recordCount="42">
<True/>
</Node>
</Node>
</Node>
</Node>
</Node>
</TreeModel>
</Segment>
<Segment id="1">
<True/>
<TreeModel modelName="tree_1" functionName="regression" missingValueStrategy="defaultChild" splitCharacteristic="binarySplit">
<MiningSchema>
<MiningField name="feature_3" usageType="active"/>
<MiningField name="feature_5" usageType="active"/>
<MiningField name="feature_7" usageType="active"/>
<MiningField name="feature_13" usageType="active"/>
<MiningField name="feature_14" usageType="active"/>
<MiningField name="feature_15" usageType="active"/>
<MiningField name="feature_0_mapped" usageType="active"/>
<MiningField name="feature_1_mapped" usageType="active"/>
<MiningField name="feature_2_mapped" usageType="active"/>
<MiningField name="feature_4_mapped" usageType="active"/>
<MiningField name="feature_6_mapped" usageType="active"/>
<MiningField name="feature_8_mapped" usageType="active"/>
<MiningField name="feature_9_mapped" usageType="active"/>
<MiningField name="feature_10_mapped" usageType="active"/>
<MiningField name="feature_11_mapped" usageType="active"/>
<MiningField name="feature_12_mapped" usageType="active"/>
<MiningField name="feature_16_mapped" usageType="active"/>
<MiningField name="prediction" usageType="target"/>
</MiningSchema>
<Output>
<OutputField name="prediction" optype="continuous" dataType="double"/>
</Output>
<Node id="0" recordCount="101">
<True/>
<Node id="2" recordCount="2" defaultChild="5">
<SimplePredicate field="feature_10_mapped" operator="equal" value="1"/>
<Node id="6" recordCount="0" defaultChild="13">
<SimplePredicate field="feature_3" operator="greaterThan" value="61.5"/>
<Node id="14" recordCount="0" defaultChild="29">
<SimplePredicate field="feature_13" operator="greaterThan" value="1087"/>
<Node id="30" score="0" recordCount="0">
<SimplePredicate field="feature_7" operator="greaterThan" value="13.5"/>
</Node>
<Node id="29" score="0" recordCount="0">
<True/>
</Node>
</Node>
<Node id="13" recordCount="0">
<True/>
<Node id="28" score="0" recordCount="0">
<SimplePredicate field="feature_7" operator="greaterThan" value="13.5"/>
</Node>
<Node id="27" score="0" recordCount="0">
<True/>
</Node>
</Node>
</Node>
<Node id="5" recordCount="2">
<True/>
<Node id="12" recordCount="1" defaultChild="25">
<SimplePredicate field="feature_13" operator="greaterThan" value="1087"/>
<Node id="26" score="-0.09058453959" recordCount="1">
<SimplePredicate field="feature_7" operator="greaterThan" value="13.5"/>
</Node>
<Node id="25" score="0" recordCount="0">
<True/>
</Node>
</Node>
<Node id="11" recordCount="1">
<True/>
<Node id="24" score="0.0167555213" recordCount="1">
<SimplePredicate field="feature_7" operator="greaterThan" value="13.5"/>
</Node>
<Node id="23" score="0" recordCount="0">
<True/>
</Node>
</Node>
</Node>
</Node>
<Node id="1" recordCount="99">
<True/>
<Node id="4" recordCount="4" defaultChild="9">
<SimplePredicate field="feature_3" operator="greaterThan" value="61.5"/>
<Node id="10" recordCount="2" defaultChild="21">
<SimplePredicate field="feature_13" operator="greaterThan" value="1087"/>
<Node id="22" score="0" recordCount="0">
<SimplePredicate field="feature_7" operator="greaterThan" value="13.5"/>
</Node>
<Node id="21" score="-0.1235502128" recordCount="2">
<True/>
</Node>
</Node>
<Node id="9" recordCount="2">
<True/>
<Node id="20" score="0" recordCount="0">
<SimplePredicate field="feature_7" operator="greaterThan" value="13.5"/>
</Node>
<Node id="19" score="0.02680883408" recordCount="2">
<True/>
</Node>
</Node>
</Node>
<Node id="3" recordCount="95">
<True/>
<Node id="8" recordCount="4" defaultChild="17">
<SimplePredicate field="feature_13" operator="greaterThan" value="1087"/>
<Node id="18" score="0" recordCount="0">
<SimplePredicate field="feature_7" operator="greaterThan" value="13.5"/>
</Node>
<Node id="17" score="-0.1393522917" recordCount="4">
<True/>
</Node>
</Node>
<Node id="7" recordCount="91">
<True/>
<Node id="16" score="-0.1554189283" recordCount="11">
<SimplePredicate field="feature_7" operator="greaterThan" value="13.5"/>
</Node>
<Node id="15" score="0.0422762573" recordCount="80">
<True/>
</Node>
</Node>
</Node>
</Node>
</Node>
</TreeModel>
</Segment>
<Segment id="2">
<True/>
<TreeModel modelName="tree_2" functionName="regression" missingValueStrategy="defaultChild" splitCharacteristic="binarySplit">
<MiningSchema>
<MiningField name="feature_3" usageType="active"/>
<MiningField name="feature_5" usageType="active"/>
<MiningField name="feature_7" usageType="active"/>
<MiningField name="feature_13" usageType="active"/>
<MiningField name="feature_14" usageType="active"/>
<MiningField name="feature_15" usageType="active"/>
<MiningField name="feature_0_mapped" usageType="active"/>
<MiningField name="feature_1_mapped" usageType="active"/>
<MiningField name="feature_2_mapped" usageType="active"/>
<MiningField name="feature_4_mapped" usageType="active"/>
<MiningField name="feature_6_mapped" usageType="active"/>
<MiningField name="feature_8_mapped" usageType="active"/>
<MiningField name="feature_9_mapped" usageType="active"/>
<MiningField name="feature_10_mapped" usageType="active"/>
<MiningField name="feature_11_mapped" usageType="active"/>
<MiningField name="feature_12_mapped" usageType="active"/>
<MiningField name="feature_16_mapped" usageType="active"/>
<MiningField name="prediction" usageType="target"/>
</MiningSchema>
<Output>
<OutputField name="prediction" optype="continuous" dataType="double"/>
</Output>
<Node id="0" recordCount="101">
<True/>
<Node id="2" recordCount="4" defaultChild="5">
<SimplePredicate field="feature_8_mapped" operator="equal" value="1"/>
<Node id="6" recordCount="0" defaultChild="13">
<SimplePredicate field="feature_9_mapped" operator="equal" value="0"/>
<Node id="14" recordCount="0" defaultChild="29">
<SimplePredicate field="feature_14" operator="greaterThan" value="1881.5"/>
<Node id="30" score="0" recordCount="0">
<SimplePredicate field="feature_13" operator="greaterThan" value="7493"/>
</Node>
<Node id="29" score="0" recordCount="0">
<True/>
</Node>
</Node>
<Node id="13" recordCount="0">
<True/>
<Node id="28" score="0" recordCount="0">
<SimplePredicate field="feature_13" operator="greaterThan" value="7493"/>
</Node>
<Node id="27" score="0" recordCount="0">
<True/>
</Node>
</Node>
</Node>
<Node id="5" recordCount="4">
<True/>
<Node id="12" recordCount="0" defaultChild="25">
<SimplePredicate field="feature_14" operator="greaterThan" value="1881.5"/>
<Node id="26" score="0" recordCount="0">
<SimplePredicate field="feature_13" operator="greaterThan" value="7493"/>
</Node>
<Node id="25" score="0" recordCount="0">
<True/>
</Node>
</Node>
<Node id="11" recordCount="4">
<True/>
<Node id="24" score="0" recordCount="0">
<SimplePredicate field="feature_13" operator="greaterThan" value="7493"/>
</Node>
<Node id="23" score="0.02366618144" recordCount="4">
<True/>
</Node>
</Node>
</Node>
</Node>
<Node id="1" recordCount="97">
<True/>
<Node id="4" recordCount="13" defaultChild="9">
<SimplePredicate field="feature_9_mapped" operator="equal" value="0"/>
<Node id="10" recordCount="1" defaultChild="21">
<SimplePredicate field="feature_14" operator="greaterThan" value="1881.5"/>
<Node id="22" score="0" recordCount="0">
<SimplePredicate field="feature_13" operator="greaterThan" value="7493"/>
</Node>
<Node id="21" score="-0.05560357501" recordCount="1">
<True/>
</Node>
</Node>
<Node id="9" recordCount="12">
<True/>
<Node id="20" score="-0.07926147214" recordCount="1">
<SimplePredicate field="feature_13" operator="greaterThan" value="7493"/>
</Node>
<Node id="19" score="-0.07636841158" recordCount="11">
<True/>
</Node>
</Node>
</Node>
<Node id="3" recordCount="84">
<True/>
<Node id="8" recordCount="3" defaultChild="17">
<SimplePredicate field="feature_14" operator="greaterThan" value="1881.5"/>
<Node id="18" score="0" recordCount="0">
<SimplePredicate field="feature_13" operator="greaterThan" value="7493"/>
</Node>
<Node id="17" score="-0.0443484155" recordCount="3">
<True/>
</Node>
</Node>
<Node id="7" recordCount="81">
<True/>
<Node id="16" score="-0.1298269707" recordCount="3">
<SimplePredicate field="feature_13" operator="greaterThan" value="7493"/>
</Node>
<Node id="15" score="0.02028020536" recordCount="78">
<True/>
</Node>
</Node>
</Node>
</Node>
</Node>
</TreeModel>
</Segment>
<Segment id="3">
<True/>
<TreeModel modelName="tree_3" functionName="regression" missingValueStrategy="defaultChild" splitCharacteristic="binarySplit">
<MiningSchema>
<MiningField name="feature_3" usageType="active"/>
<MiningField name="feature_5" usageType="active"/>
<MiningField name="feature_7" usageType="active"/>
<MiningField name="feature_13" usageType="active"/>
<MiningField name="feature_14" usageType="active"/>
<MiningField name="feature_15" usageType="active"/>
<MiningField name="feature_0_mapped" usageType="active"/>
<MiningField name="feature_1_mapped" usageType="active"/>
<MiningField name="feature_2_mapped" usageType="active"/>
<MiningField name="feature_4_mapped" usageType="active"/>
<MiningField name="feature_6_mapped" usageType="active"/>
<MiningField name="feature_8_mapped" usageType="active"/>
<MiningField name="feature_9_mapped" usageType="active"/>
<MiningField name="feature_10_mapped" usageType="active"/>
<MiningField name="feature_11_mapped" usageType="active"/>
<MiningField name="feature_12_mapped" usageType="active"/>
<MiningField name="feature_16_mapped" usageType="active"/>
<MiningField name="prediction" usageType="target"/>
</MiningSchema>
<Output>
<OutputField name="prediction" optype="continuous" dataType="double"/>
</Output>
<Node id="0" recordCount="101">
<True/>
<Node id="2" recordCount="2" defaultChild="5">
<SimplePredicate field="feature_6_mapped" operator="equal" value="0"/>
<Node id="6" recordCount="0" defaultChild="13">
<SimplePredicate field="feature_8_mapped" operator="equal" value="1"/>
<Node id="14" recordCount="0" defaultChild="29">
<SimplePredicate field="feature_4_mapped" operator="equal" value="0"/>
<Node id="30" score="0" recordCount="0">
<SimplePredicate field="feature_10_mapped" operator="equal" value="0"/>
</Node>
<Node id="29" score="0" recordCount="0">
<True/>
</Node>
</Node>
<Node id="13" recordCount="0">
<True/>
<Node id="28" score="0" recordCount="0">
<SimplePredicate field="feature_10_mapped" operator="equal" value="0"/>
</Node>
<Node id="27" score="0" recordCount="0">
<True/>
</Node>
</Node>
</Node>
<Node id="5" recordCount="2">
<True/>
<Node id="12" recordCount="0" defaultChild="25">
<SimplePredicate field="feature_4_mapped" operator="equal" value="0"/>
<Node id="26" score="0" recordCount="0">
<SimplePredicate field="feature_10_mapped" operator="equal" value="0"/>
</Node>
<Node id="25" score="0" recordCount="0">
<True/>
</Node>
</Node>
<Node id="11" recordCount="2">
<True/>
<Node id="24" score="-0.09900177784" recordCount="2">
<SimplePredicate field="feature_10_mapped" operator="equal" value="0"/>
</Node>
<Node id="23" score="0" recordCount="0">
<True/>
</Node>
</Node>
</Node>
</Node>
<Node id="1" recordCount="99">
<True/>
<Node id="4" recordCount="4" defaultChild="9">
<SimplePredicate field="feature_8_mapped" operator="equal" value="1"/>
<Node id="10" recordCount="0" defaultChild="21">
<SimplePredicate field="feature_4_mapped" operator="equal" value="0"/>
<Node id="22" score="0" recordCount="0">
<SimplePredicate field="feature_10_mapped" operator="equal" value="0"/>
</Node>
<Node id="21" score="0" recordCount="0">
<True/>
</Node>
</Node>
<Node id="9" recordCount="4">
<True/>
<Node id="20" score="0" recordCount="0">
<SimplePredicate field="feature_10_mapped" operator="equal" value="0"/>
</Node>
<Node id="19" score="0.01690441532" recordCount="4">
<True/>
</Node>
</Node>
</Node>
<Node id="3" recordCount="95">
<True/>
<Node id="8" recordCount="5" defaultChild="17">
<SimplePredicate field="feature_4_mapped" operator="equal" value="0"/>
<Node id="18" score="-0.1503876582" recordCount="4">
<SimplePredicate field="feature_10_mapped" operator="equal" value="0"/>
</Node>
<Node id="17" score="-0.07477192128" recordCount="1">
<True/>
</Node>
</Node>
<Node id="7" recordCount="90">
<True/>
<Node id="16" score="-0.03941670469" recordCount="30">
<SimplePredicate field="feature_10_mapped" operator="equal" value="0"/>
</Node>
<Node id="15" score="0.03324415334" recordCount="60">
<True/>
</Node>
</Node>
</Node>
</Node>
</Node>
</TreeModel>
</Segment>
<Segment id="4">
<True/>
<TreeModel modelName="tree_4" functionName="regression" missingValueStrategy="defaultChild" splitCharacteristic="binarySplit">
<MiningSchema>
<MiningField name="feature_3" usageType="active"/>
<MiningField name="feature_5" usageType="active"/>
<MiningField name="feature_7" usageType="active"/>
<MiningField name="feature_13" usageType="active"/>
<MiningField name="feature_14" usageType="active"/>
<MiningField name="feature_15" usageType="active"/>
<MiningField name="feature_0_mapped" usageType="active"/>
<MiningField name="feature_1_mapped" usageType="active"/>
<MiningField name="feature_2_mapped" usageType="active"/>
<MiningField name="feature_4_mapped" usageType="active"/>
<MiningField name="feature_6_mapped" usageType="active"/>
<MiningField name="feature_8_mapped" usageType="active"/>
<MiningField name="feature_9_mapped" usageType="active"/>
<MiningField name="feature_10_mapped" usageType="active"/>
<MiningField name="feature_11_mapped" usageType="active"/>
<MiningField name="feature_12_mapped" usageType="active"/>
<MiningField name="feature_16_mapped" usageType="active"/>
<MiningField name="prediction" usageType="target"/>
</MiningSchema>
<Output>
<OutputField name="prediction" optype="continuous" dataType="double"/>
</Output>
<Node id="0" recordCount="101">
<True/>
<Node id="2" recordCount="9" defaultChild="5">
<SimplePredicate field="feature_4_mapped" operator="equal" value="1"/>
<Node id="6" recordCount="6" defaultChild="13">
<SimplePredicate field="feature_5" operator="greaterThan" value="188655"/>
<Node id="14" recordCount="1" defaultChild="29">
<SimplePredicate field="feature_9_mapped" operator="equal" value="0"/>
<Node id="30" score="0" recordCount="0">
<SimplePredicate field="feature_7" operator="greaterThan" value="14.5"/>
</Node>
<Node id="29" score="-0.03942870285" recordCount="1">
<True/>
</Node>
</Node>
<Node id="13" recordCount="5">
<True/>
<Node id="28" score="0" recordCount="0">
<SimplePredicate field="feature_7" operator="greaterThan" value="14.5"/>
</Node>
<Node id="27" score="-0.02199734484" recordCount="5">
<True/>
</Node>
</Node>
</Node>
<Node id="5" recordCount="3">
<True/>
<Node id="12" recordCount="1" defaultChild="25">
<SimplePredicate field="feature_9_mapped" operator="equal" value="0"/>
<Node id="26" score="0" recordCount="0">
<SimplePredicate field="feature_7" operator="greaterThan" value="14.5"/>
</Node>
<Node id="25" score="0.0218881778" recordCount="1">
<True/>
</Node>
</Node>
<Node id="11" recordCount="2">
<True/>
<Node id="24" score="0" recordCount="0">
<SimplePredicate field="feature_7" operator="greaterThan" value="14.5"/>
</Node>
<Node id="23" score="-0.02272575447" recordCount="2">
<True/>
</Node>
</Node>
</Node>
</Node>
<Node id="1" recordCount="92">
<True/>
<Node id="4" recordCount="50" defaultChild="9">
<SimplePredicate field="feature_5" operator="greaterThan" value="188655"/>
<Node id="10" recordCount="6" defaultChild="21">
<SimplePredicate field="feature_9_mapped" operator="equal" value="0"/>
<Node id="22" score="0" recordCount="0">
<SimplePredicate field="feature_7" operator="greaterThan" value="14.5"/>
</Node>
<Node id="21" score="-0.08047717783" recordCount="6">
<True/>
</Node>
</Node>
<Node id="9" recordCount="44">
<True/>
<Node id="20" score="-0.01275647522" recordCount="3">
<SimplePredicate field="feature_7" operator="greaterThan" value="14.5"/>
</Node>
<Node id="19" score="0.01965010067" recordCount="41">
<True/>
</Node>
</Node>
</Node>
<Node id="3" recordCount="42">
<True/>
<Node id="8" recordCount="5" defaultChild="17">
<SimplePredicate field="feature_9_mapped" operator="equal" value="0"/>
<Node id="18" score="0" recordCount="0">
<SimplePredicate field="feature_7" operator="greaterThan" value="14.5"/>
</Node>
<Node id="17" score="-0.02218818787" recordCount="5">
<True/>
</Node>
</Node>
<Node id="7" recordCount="37">
<True/>
<Node id="16" score="0" recordCount="0">
<SimplePredicate field="feature_7" operator="greaterThan" value="14.5"/>
</Node>
<Node id="15" score="-0.01160161295" recordCount="37">
<True/>
</Node>
</Node>
</Node>
</Node>
</Node>
</TreeModel>
</Segment>
</Segmentation>
</MiningModel>
<Targets>
<Target rescaleConstant="0.7821782231" rescaleFactor="1"/>
</Targets>
</PMML>
